<?xml version="1.0"?>
<opencv_storage>
<cascade>
  <stageType>BOOST</stageType>
  <featureType>LBP</featureType>
  <height>24</height>
  <width>24</width>
  <stageParams>
    <boostType>GAB</boostType>
    <minHitRate>9.9500000476837158e-001</minHitRate>
    <maxFalseAlarm>5.0000000000000000e-001</maxFalseAlarm>
    <weightTrimRate>9.4999999999999996e-001</weightTrimRate>
    <maxDepth>1</maxDepth>
    <maxWeakCount>100</maxWeakCount></stageParams>
  <featureParams>
    <maxCatCount>256</maxCatCount>
    <featSize>1</featSize></featureParams>
  <stageNum>18</stageNum>
  <stages>
    <!-- stage 0 -->
    <_>
      <maxWeakCount>5</maxWeakCount>
      <stageThreshold>-1.9659019708633423e+000</stageThreshold>
      <weakClassifiers>
        <_>
          <internalNodes>
            0 -1 10 -134220802 2011167583 -268054274 -142877841
            -516949762 1343225968 -486278161 1946153663</internalNodes>
          <leafValues>
            -7.6897132396697998e-001 6.0219478607177734e-001</leafValues></_>
        <_>
          <internalNodes>
            0 -1 6 1371926254 -781067298 817353117 -148919027 -247351301
            1679049216 -608044321 1363522383</internalNodes>
          <leafValues>
            -5.9634941816329956e-001 3.8349202275276184e-001</leafValues></_>
        <_>
          <internalNodes>
            0 -1 232 -388240402 71755719 -242942304 511940 1653840160
            13883430 -442232440 1079498063</internalNodes>
          <leafValues>
            -5.6327426433563232e-001 3.7144666910171509e-001</leafValues></_>
        <_>
          <internalNodes>
            0 -1 271 -721948732 -963120690 1161937538 -490322046
            1398449415 335609920 -338771712 -1049116958</internalNodes>
          <leafValues>
            -4.5899084210395813e-001 3.8562911748886108e-001</leafValues></_>
        <_>
          <internalNodes>
            0 -1 49 -103375170 -207693864 1344667684 -208533928
            793867197 1018273948 2006515931 1667854826</internalNodes>
          <leafValues>
            -5.1303702592849731e-001 3.6367952823638916e-001</leafValues></_></weakClassifiers></_>
    <!-- stage 1 -->
    <_>
      <maxWeakCount>10</maxWeakCount>
      <stageThreshold>-1.5296735763549805e+000</stageThreshold>
      <weakClassifiers>
        <_>
          <internalNodes>
            0 -1 35 -8389633 -2105857 1930793726 -4195721 -203817985
            1940632047 -301990913 2011167679</internalNodes>
          <leafValues>
            -6.7459809780120850e-001 3.6010590195655823e-001</leafValues></_>
        <_>
          <internalNodes>
            0 -1 61 17998835 1576389853 -1890459681 -976420 1758560255
            -1074553872 -342361089 1964184369</internalNodes>
          <leafValues>
            -4.3679171800613403e-001 3.9698874950408936e-001</leafValues></_>
        <_>
          <internalNodes>
            0 -1 9 -50533690 -153289812 -28921114 -93585714 -429932574
            -1035427712 -19482626 1668658082</internalNodes>
          <leafValues>
            -5.4885071516036987e-001 2.5461453199386597e-001</leafValues></_>
        <_>
          <internalNodes>
            0 -1 253 -153729532 1608505179 -1625442561 -120592107
            -16854904 -260320541 -398673473 -261968182</internalNodes>
          <leafValues>
            -3.7709918618202209e-001 3.4050458669662476e-001</leafValues></_>
        <_>
          <internalNodes>
            0 -1 271 -698363962 -423915384 1150398080 -1063529608
            1464747332 606808312 -526397372 -784093461</internalNodes>
          <leafValues>
            -3.4007829427719116e-001 3.6385184526443481e-001</leafValues></_>
        <_>
          <internalNodes>
            0 -1 116 1380301750 2144078967 890511584 1039788295
            602238894 1700571842 379912156 344794632</internalNodes>
          <leafValues>
            -5.2973783016204834e-001 2.1072480082511902e-001</leafValues></_>
        <_>
          <internalNodes>
            0 -1 98 1953833404 937087903 697344174 -1144744769
            1522084569 855533720 -1499915304 819291360</internalNodes>
          <leafValues>
            -4.9255803227424622e-001 2.7259251475334167e-001</leafValues></_>
        <_>
          <internalNodes>
            0 -1 129 -1541895430 -1787711584 2130294975 -44980527
            -1501417313 -71454224 2140389343 -579926640</internalNodes>
          <leafValues>
            -3.2170087099075317e-001 3.9520525932312012e-001</leafValues></_>
        <_>
          <internalNodes>
            0 -1 46 -10747993 -197725825 -560739640 618193374 1933796101
            1931466097 -677564122 -1858866697</internalNodes>
          <leafValues>
            -3.9552792906761169e-001 3.1381717324256897e-001</leafValues></_>
        <_>
          <internalNodes>
            0 -1 157 -1031226192 1600831064 -269504519 -33998352
            901394173 -78254337 1610309629 -1098427774</internalNodes>
          <leafValues>
            -3.3161944150924683e-001 3.8930824398994446e-001</leafValues></_></weakClassifiers></_>
    <!-- stage 2 -->
    <_>
      <maxWeakCount>8</maxWeakCount>
      <stageThreshold>-1.4762083292007446e+000</stageThreshold>
      <weakClassifiers>
        <_>
          <internalNodes>
            0 -1 14 -285212673 -198706225 -1018694897 -320872721
            1985442663 -625257897 -230431901 -143130761</internalNodes>
          <leafValues>
            -6.3643705844879150e-001 4.1414141654968262e-001</leafValues></_>
        <_>
          <internalNodes>
            0 -1 270 -285216793 549704431 -655973882 46574278 -237244925
            1143994564 -173048991 -168296585</internalNodes>
          <leafValues>
            -4.5380514860153198e-001 4.0930283069610596e-001</leafValues></_>
        <_>
          <internalNodes>
            0 -1 42 -44040225 -142672385 1343422628 -137451978
            1940913903 1895166714 -851763841 2012725231</internalNodes>
          <leafValues>
            -4.1839843988418579e-001 3.9312914013862610e-001</leafValues></_>
        <_>
          <internalNodes>
            0 -1 36 -268435473 -494996890 1584391906 -2098268702
            1148985906 1647665813 1963980113 -461901097</internalNodes>
          <leafValues>
            -4.0917229652404785e-001 3.4103864431381226e-001</leafValues></_>
        <_>
          <internalNodes>
            0 -1 267 -268435501 -1595482185 -713687064 -1502304093
            -536879350 -2097694746 -1053436 -255330445</internalNodes>
          <leafValues>
            -3.2316184043884277e-001 3.9959526062011719e-001</leafValues></_>
        <_>
          <internalNodes>
            0 -1 132 -1034805080 1062499709 1403269948 1031670323
            1910176765 905268936 -71059025 38090532</internalNodes>
          <leafValues>
            -5.4759085178375244e-001 2.5054404139518738e-001</leafValues></_>
        <_>
          <internalNodes>
            0 -1 3 -298914906 -1635129792 1577500567 -34360352
            -495488517 -36678777 1950504384 -403212783</internalNodes>
          <leafValues>
            -4.1267919540405273e-001 2.7935779094696045e-001</leafValues></_>
        <_>
          <internalNodes>
            0 -1 272 -942671620 1724323528 1879206946 1181744584
            1474516800 -534572598 -142617003 -135791774</internalNodes>
          <leafValues>
            -3.8531631231307983e-001 3.1024247407913208e-001</leafValues></_></weakClassifiers></_>
    <!-- stage 3 -->
    <_>
      <maxWeakCount>14</maxWeakCount>
      <stageThreshold>-1.2301186323165894e+000</stageThreshold>
      <weakClassifiers>
        <_>
          <internalNodes>
            0 -1 8 -538969105 -67117321 -744760993 -321 -406849537
            1916724194 -2098257 2013262591</internalNodes>
          <leafValues>
            -6.2873715162277222e-001 1.9885668158531189e-001</leafValues></_>
        <_>
          <internalNodes>
            0 -1 32 -135266369 531927955 -955207169 -31418606 -550028521
            1842817571 -38049 2104982015</internalNodes>
          <leafValues>
            -4.1698265075683594e-001 3.2538178563117981e-001</leafValues></_>
        <_>
          <internalNodes>
            0 -1 177 337918813 28728735 2147385341 -1140850833 -26476577
            -1090650113 -558618136 -1996558344</internalNodes>
          <leafValues>
            -2.7814707159996033e-001 4.3171933293342590e-001</leafValues></_>
        <_>
          <internalNodes>
            0 -1 265 -555789218 -142739715 1425988859 -1639188545
            1744721484 -118558978 -1262028086 -927008002</internalNodes>
          <leafValues>
            -3.0734196305274963e-001 3.6821168661117554e-001</leafValues></_>
        <_>
          <internalNodes>
            0 -1 133 1380256734 503165854 527949791 2138413290
            1106558958 1598031948 -76025922 461972362</internalNodes>
          <leafValues>
            -3.6263030767440796e-001 2.8523844480514526e-001</leafValues></_>
        <_>
          <internalNodes>
            0 -1 30 -276375697 -1368570965 -300817554 -1065966594
            2133707638 2029746611 -170822927 -490737665</internalNodes>
          <leafValues>
            -3.3378097414970398e-001 2.9912021756172180e-001</leafValues></_>
        <_>
          <internalNodes>
            0 -1 211 -486559969 783983041 -1189778824 -1531127009
            1669541337 207216507 614283440 117369271</internalNodes>
          <leafValues>
            -4.3505910038948059e-001 2.3701353371143341e-001</leafValues></_>
        <_>
          <internalNodes>
            0 -1 16 -1494044889 -1089085441 -1124077613 2146722983
            1287016159 -17887746 1316814079 -633997</internalNodes>
          <leafValues>
            -2.4920894205570221e-001 4.0716975927352905e-001</leafValues></_>
        <_>
          <internalNodes>
            0 -1 295 -947614078 1086827478 -2146808766 1348099070
            -118957736 -1251241528 -250743075 -137894690</internalNodes>
          <leafValues>
            -3.3336082100868225e-001 2.9444181919097900e-001</leafValues></_>
        <_>
          <internalNodes>
            0 -1 33 -1611905 1911205559 934264377 1655745136 -680114895
            -1883900141 -8458377 -1409936222</internalNodes>
          <leafValues>
            -2.9062530398368835e-001 3.3936241269111633e-001</leafValues></_>
        <_>
          <internalNodes>
            0 -1 243 -1130479056 1463223636 -1328360005 346330882
            827334724 -38562614 -1731030931 -1171327378</internalNodes>
          <leafValues>
            -3.7585407495498657e-001 2.4590416252613068e-001</leafValues></_>
        <_>
          <internalNodes>
            0 -1 125 -929063766 -959593846 1477185964 -1033067249
            -1229830906 808687989 -994741758 1368389563</internalNodes>
          <leafValues>
            -4.2350041866302490e-001 2.2782073915004730e-001</leafValues></_>
        <_>
          <internalNodes>
            0 -1 192 -253902822 931764924 407932799 529247195 -104253270
            -1209142326 1678415276 134228646</internalNodes>
          <leafValues>
            -3.7597206234931946e-001 2.6574268937110901e-001</leafValues></_>
        <_>
          <internalNodes>
            0 -1 209 -181235632 -782962160 1045362685 -48232977
            -242421614 -1177617738 836284398 -618666501</internalNodes>
          <leafValues>
            -2.5014364719390869e-001 4.0234375000000000e-001</leafValues></_></weakClassifiers></_>
    <!-- stage 4 -->
    <_>
      <maxWeakCount>12</maxWeakCount>
      <stageThreshold>-1.1999341249465942e+000</stageThreshold>
      <weakClassifiers>
        <_>
          <internalNodes>
            0 -1 21 -1048577 -38797313 -17563649 -2107425 2010118907
            -7091033 -453642377 -524297</internalNodes>
          <leafValues>
            -5.1714235544204712e-001 4.0441176295280457e-001</leafValues></_>
        <_>
          <internalNodes>
            0 -1 37 -142607365 -538977797 546829258 -880395 -556795137
            1939387365 -475035681 2013133802</internalNodes>
          <leafValues>
            -4.2114129662513733e-001 2.9697212576866150e-001</leafValues></_>
        <_>
          <internalNodes>
            0 -1 236 -294126609 -523923473 -86518988 1612935125
            1410334515 234603515 -408947884 -170395653</internalNodes>
          <leafValues>
            -3.1994882225990295e-001 3.1718099117279053e-001</leafValues></_>
        <_>
          <internalNodes>
            0 -1 59 -1601440833 -1386152255 -1108918817 -683223808
            -1350565889 -2391 -419570177 -44683</internalNodes>
          <leafValues>
            -2.3287604749202728e-001 4.3048810958862305e-001</leafValues></_>
        <_>
          <internalNodes>
            0 -1 112 781465079 -1686970945 -572849420 -1197956114
            762920159 2049203438 -92839228 424677728</internalNodes>
          <leafValues>
            -4.4256320595741272e-001 2.2189398109912872e-001</leafValues></_>
        <_>
          <internalNodes>
            0 -1 136 -16731880 -1456978400 465638917 -1787964385
            689531306 -1134872136 1293359140 -6327291</internalNodes>
          <leafValues>
            -3.1498497724533081e-001 3.2034990191459656e-001</leafValues></_>
        <_>
          <internalNodes>
            0 -1 205 -161694156 -1613103108 -933232778 278435416
            -927115981 -46939846 -46186541 13810603</internalNodes>
          <leafValues>
            -4.3360874056816101e-001 2.1928352117538452e-001</leafValues></_>
        <_>
          <internalNodes>
            0 -1 78 -204997186 -1025708372 1615823176 -265993378 -788928
            606285842 -1239297097 -176427521</internalNodes>
          <leafValues>
            -3.3095186948776245e-001 2.9526412487030029e-001</leafValues></_>
        <_>
          <internalNodes>
            0 -1 292 -444628469 -1863353702 -972117858 987297631
            1437488180 545152550 -648211595 -725367453</internalNodes>
          <leafValues>
            -2.7170515060424805e-001 3.2155847549438477e-001</leafValues></_>
        <_>
          <internalNodes>
            0 -1 161 -1564475238 325198291 210802935 -2121874456
            705700585 999834246 1001746891 -1418260160</internalNodes>
          <leafValues>
            -3.3353203535079956e-001 2.7168855071067810e-001</leafValues></_>
        <_>
          <internalNodes>
            0 -1 251 -663089071 -538643203 1744379901 -648329865
            -2479400 -1142182197 1542215438 -1706357313</internalNodes>
          <leafValues>
            -2.3880854249000549e-001 3.6596009135246277e-001</leafValues></_>
        <_>
          <internalNodes>
            0 -1 237 1849503741 70629494 -1897011040 115904352
            1609519748 218371532 1575300160 785239288</internalNodes>
          <leafValues>
            -4.6716332435607910e-001 2.0192988216876984e-001</leafValues></_></weakClassifiers></_>
    <!-- stage 5 -->
    <_>
      <maxWeakCount>15</maxWeakCount>
      <stageThreshold>-1.5399192571640015e+000</stageThreshold>
      <weakClassifiers>
        <_>
          <internalNodes>
            0 -1 160 1476384223 -44460805 -1653088513 -1126310593
            -274744897 -4165 -20382785 -1463812097</internalNodes>
          <leafValues>
            -5.3737872838973999e-001 2.9510155320167542e-001</leafValues></_>
        <_>
          <internalNodes>
            0 -1 15 -17826081 -76690737 1331545055 -1063984489 293859895
            -11539891 -463323565 2033680167</internalNodes>
          <leafValues>
            -3.6817741394042969e-001 2.8816467523574829e-001</leafValues></_>
        <_>
          <internalNodes>
            0 -1 48 -135593985 -1745093474 -1182352140 -467262058
            1776708407 -1075512439 -158720420 1068517367</internalNodes>
          <leafValues>
            -3.8994601368904114e-001 2.5311183929443359e-001</leafValues></_>
        <_>
          <internalNodes>
            0 -1 1 612820705 -1381333792 -34603145 -7900056 1596948475
            1843980799 1272401909 -285256847</internalNodes>
          <leafValues>
            -3.2746991515159607e-001 2.6512765884399414e-001</leafValues></_>
        <_>
          <internalNodes>
            0 -1 231 -71839993 133678207 1427880215 974565 1154378848
            1335937174 -191372544 1156045926</internalNodes>
          <leafValues>
            -3.6075079441070557e-001 2.4915312230587006e-001</leafValues></_>
        <_>
          <internalNodes>
            0 -1 7 88992454 1906282975 725849427 1107276253 442010239
            1171266504 -288908849 1401236166</internalNodes>
          <leafValues>
            -4.3835145235061646e-001 2.0070642232894897e-001</leafValues></_>
        <_>
          <internalNodes>
            0 -1 113 -2113891952 -1088580368 -1994859299 2132644244
            1066066586 -307461950 -1708551457 -1976890999</internalNodes>
          <leafValues>
            -2.9953545331954956e-001 2.7304252982139587e-001</leafValues></_>
        <_>
          <internalNodes>
            0 -1 143 -269178937 -673399809 -1681749918 -1459959072
            -606690093 -476820876 -434080124 -456107776</internalNodes>
          <leafValues>
            -3.6831817030906677e-001 2.2499930858612061e-001</leafValues></_>
        <_>
          <internalNodes>
            0 -1 275 -1040612792 -333863533 1800313024 -972077884
            -1300629504 89035586 -2008936382 1931670039</internalNodes>
          <leafValues>
            -4.5617246627807617e-001 1.8293185532093048e-001</leafValues></_>
        <_>
          <internalNodes>
            0 -1 176 1054029685 1014972414 989786823 -545264138
            -276908054 -1124320438 1021156520 483402004</internalNodes>
          <leafValues>
            -2.8777894377708435e-001 2.9982861876487732e-001</leafValues></_>
        <_>
          <internalNodes>
            0 -1 151 1400043656 274633756 1204867868 -201354345
            526882652 848301224 1940618702 1775155470</internalNodes>
          <leafValues>
            -3.9219132065773010e-001 2.1684604883193970e-001</leafValues></_>
        <_>
          <internalNodes>
            0 -1 51 -29378561 -1163216286 -1317059950 -133893571
            1592412138 -82205018 1874532570 -648610082</internalNodes>
          <leafValues>
            -2.2394138574600220e-001 3.7678062915802002e-001</leafValues></_>
        <_>
          <internalNodes>
            0 -1 173 359499884 -1097069218 643083372 1039892946
            2056789961 501321930 920074940 653537672</internalNodes>
          <leafValues>
            -4.5243611931800842e-001 1.9213707745075226e-001</leafValues></_>
        <_>
          <internalNodes>
            0 -1 65 -300946229 -1013986198 1078336084 -798144317
            -489012720 1914569346 -748679296 -1303383161</internalNodes>
          <leafValues>
            -3.1392484903335571e-001 2.5733026862144470e-001</leafValues></_>
        <_>
          <internalNodes>
            0 -1 152 -2109493080 1465822022 71365874 1606736921
            -1622568280 -1805160734 503473291 -820003779</internalNodes>
          <leafValues>
            -2.6018512248992920e-001 3.1544092297554016e-001</leafValues></_></weakClassifiers></_>
    <!-- stage 6 -->
    <_>
      <maxWeakCount>17</maxWeakCount>
      <stageThreshold>-1.4991239309310913e+000</stageThreshold>
      <weakClassifiers>
        <_>
          <internalNodes>
            0 -1 4 -283901953 -34246145 -618935809 -659533 -72173057
            -71652613 -84153409 -557705</internalNodes>
          <leafValues>
            -4.8393818736076355e-001 3.8907849788665771e-001</leafValues></_>
        <_>
          <internalNodes>
            0 -1 208 -137627657 -993526321 -662679215 -2132033300
            -786450037 -924853871 -8138269 83874027</internalNodes>
          <leafValues>
            -3.7667822837829590e-001 2.9381573200225830e-001</leafValues></_>
        <_>
          <internalNodes>
            0 -1 2 -400294925 -303040670 -1033 2143266798 1870133247
            -131978 1457454803 -168307229</internalNodes>
          <leafValues>
            -2.3357112705707550e-001 3.6351653933525085e-001</leafValues></_>
        <_>
          <internalNodes>
            0 -1 94 -170729745 -543170599 144841450 575716014 2018754307
            888400916 -384309386 -436867082</internalNodes>
          <leafValues>
            -3.3424255251884460e-001 2.4613519012928009e-001</leafValues></_>
        <_>
          <internalNodes>
            0 -1 158 1968485118 968735665 1464693748 964444021 912144378
            261692394 -25178193 2127407882</internalNodes>
          <leafValues>
            -2.9110598564147949e-001 3.0390581488609314e-001</leafValues></_>
        <_>
          <internalNodes>
            0 -1 174 394012033 -1076856347 -1216639554 364140765
            2053011962 -1182062937 -1162257976 902844584</internalNodes>
          <leafValues>
            -4.7546127438545227e-001 1.4905922114849091e-001</leafValues></_>
        <_>
          <internalNodes>
            0 -1 297 -343935286 -2033467156 1905051712 1074735306
            -370367200 41328768 -1080310960 -750534930</internalNodes>
          <leafValues>
            -3.3066114783287048e-001 2.3670998215675354e-001</leafValues></_>
        <_>
          <internalNodes>
            0 -1 285 -587132591 -751841192 26822655 -782515969
            -192738934 -611286526 -216227330 -607438081</internalNodes>
          <leafValues>
            -1.9988290965557098e-001 4.0971654653549194e-001</leafValues></_>
        <_>
          <internalNodes>
            0 -1 71 -458949772 354334972 -686712378 -1625304181
            -2120269134 893948048 669096557 864922376</internalNodes>
          <leafValues>
            -4.7391569614410400e-001 1.7973162233829498e-001</leafValues></_>
        <_>
          <internalNodes>
            0 -1 93 -314048826 1089208014 -2049442746 896997624
            -642989617 1392502484 -1322390635 -739252305</internalNodes>
          <leafValues>
            -2.5390419363975525e-001 3.1587913632392883e-001</leafValues></_>
        <_>
          <internalNodes>
            0 -1 58 570695856 109453316 -1588486689 -2058526644
            -356844551 1262195382 1985487827 673066768</internalNodes>
          <leafValues>
            -4.7258776426315308e-001 1.7270922660827637e-001</leafValues></_>
        <_>
          <internalNodes>
            0 -1 75 -658243881 2101015951 -1711236866 1040631817
            801798092 -190381425 1632900738 -148052272</internalNodes>
          <leafValues>
            -2.8337457776069641e-001 2.7821138501167297e-001</leafValues></_>
        <_>
          <internalNodes>
            0 -1 223 1343511764 1944925120 1433728216 394591741
            486419890 -168988694 1772375693 -1643471157</internalNodes>
          <leafValues>
            -2.6788720488548279e-001 2.8508922457695007e-001</leafValues></_>
        <_>
          <internalNodes>
            0 -1 238 -756157012 553639837 -1077481852 -1897411640
            -224302747 1474234591 337984832 1886895700</internalNodes>
          <leafValues>
            -4.7838631272315979e-001 1.6554519534111023e-001</leafValues></_>
        <_>
          <internalNodes>
            0 -1 294 -111174721 832260139 138818130 5222242 -208707518
            1081598510 1577839466 1087372270</internalNodes>
          <leafValues>
            -2.7732011675834656e-001 2.7899891138076782e-001</leafValues></_>
        <_>
          <internalNodes>
            0 -1 45 -3686837 -1263758296 -1309941397 -1333863377
            1543051950 525966619 1456049336 -18548770</internalNodes>
          <leafValues>
            -2.3946368694305420e-001 3.2959324121475220e-001</leafValues></_>
        <_>
          <internalNodes>
            0 -1 221 916532716 -1642746001 -1089719573 423156992
            -49333296 858536064 89470892 395843256</internalNodes>
          <leafValues>
            -4.7526708245277405e-001 1.6630978882312775e-001</leafValues></_></weakClassifiers></_>
    <!-- stage 7 -->
    <_>
      <maxWeakCount>19</maxWeakCount>
      <stageThreshold>-1.4692906141281128e+000</stageThreshold>
      <weakClassifiers>
        <_>
          <internalNodes>
            0 -1 26 -10487817 -3148833 -572009985 -3155553 -113280505
            -9181477 -44335297 -1</internalNodes>
          <leafValues>
            -5.0117564201354980e-001 3.1383737921714783e-001</leafValues></_>
        <_>
          <internalNodes>
            0 -1 82 301838982 2012158455 1896947196 -37908018 1654259423
            18410214 -459156545 6073230</internalNodes>
          <leafValues>
            -5.0575262308120728e-001 1.4701731503009796e-001</leafValues></_>
        <_>
          <internalNodes>
            0 -1 54 1433328638 -33655057 1072440319 -5058826 636977076
            -1124204897 1996308463 -1343783049</internalNodes>
          <leafValues>
            -2.2128044068813324e-001 3.5811352729797363e-001</leafValues></_>
        <_>
          <internalNodes>
            0 -1 254 -547868423 -580428721 99095539 399315503 -770554838
            -22103838 -933582117 -32834291</internalNodes>
          <leafValues>
            -2.2619928419589996e-001 3.3963331580162048e-001</leafValues></_>
        <_>
          <internalNodes>
            0 -1 41 -189091938 272813906 378583946 672553250 1730636322
            1038369634 -1683794396 745897655</internalNodes>
          <leafValues>
            -4.9250033497810364e-001 1.8929487466812134e-001</leafValues></_>
        <_>
          <internalNodes>
            0 -1 259 -495999090 -763647730 -392576336 1358031188
            1097645412 1288177986 -724615168 -716835116</internalNodes>
          <leafValues>
            -3.5080277919769287e-001 2.0146542787551880e-001</leafValues></_>
        <_>
          <internalNodes>
            0 -1 129 -1106589192 1609777056 -68078281 -674941351
            -1630883685 -1733643800 1066659835 -122748792</internalNodes>
          <leafValues>
            -2.1200893819332123e-001 3.4767395257949829e-001</leafValues></_>
        <_>
          <internalNodes>
            0 -1 134 1393947430 -165809016 1196382568 1033478630
            1543107496 1347690948 1930017771 1606951778</internalNodes>
          <leafValues>
            -4.0016764402389526e-001 1.8022423982620239e-001</leafValues></_>
        <_>
          <internalNodes>
            0 -1 39 805151391 -2032734773 1970133302 -1200034602
            -145510041 1027042134 1784804692 -1258946641</internalNodes>
          <leafValues>
            -2.8021714091300964e-001 2.6796951889991760e-001</leafValues></_>
        <_>
          <internalNodes>
            0 -1 0 -2140481313 -2104392504 849990619 387567925
            -482561285 -89096128 1509684223 -81029441</internalNodes>
          <leafValues>
            -2.0096497237682343e-001 3.8053128123283386e-001</leafValues></_>
        <_>
          <internalNodes>
            0 -1 92 -507595775 -1245257970 -1063810284 -2137677518
            -1438534338 11002167 -368139434 -1275621381</internalNodes>
          <leafValues>
            -2.6970118284225464e-001 2.8214740753173828e-001</leafValues></_>
        <_>
          <internalNodes>
            0 -1 291 -542143917 -1856769181 -621953157 15197920
            -519856886 -2106685882 -1012947766 -757074998</internalNodes>
          <leafValues>
            -2.1138478815555573e-001 3.6900621652603149e-001</leafValues></_>
        <_>
          <internalNodes>
            0 -1 265 -857846251 1966917593 307140635 -1722157776
            -312840892 -1684272147 2122776273 -1965655882</internalNodes>
          <leafValues>
            -3.1525591015815735e-001 2.4789564311504364e-001</leafValues></_>
        <_>
          <internalNodes>
            0 -1 184 1397108420 -237831974 392272332 1977115424
            2000804318 -200270859 -6314241 -136630045</internalNodes>
          <leafValues>
            -2.4273614585399628e-001 3.1879615783691406e-001</leafValues></_>
        <_>
          <internalNodes>
            0 -1 162 -231690102 -704641338 -599127946 1594850420
            -82952694 1276718477 119835276 -114314659</internalNodes>
          <leafValues>
            -2.6906076073646545e-001 2.8778472542762756e-001</leafValues></_>
        <_>
          <internalNodes>
            0 -1 226 -959179504 1436471353 -1682652708 1314788676
            1982206056 1406919217 -1597231112 1080353204</internalNodes>
          <leafValues>
            -5.3582888841629028e-001 1.3722209632396698e-001</leafValues></_>
        <_>
          <internalNodes>
            0 -1 72 606195867 1770883200 460521969 1728311728
            -1697402706 -1182352408 -2129689109 -349478256</internalNodes>
          <leafValues>
            -2.4929317831993103e-001 3.1816977262496948e-001</leafValues></_>
        <_>
          <internalNodes>
            0 -1 127 206585661 -1084387841 -1929115364 266612958
            479230368 915448362 2107454398 817106032</internalNodes>
          <leafValues>
            -4.9159738421440125e-001 1.6619898378849030e-001</leafValues></_>
        <_>
          <internalNodes>
            0 -1 29 -1183239313 183630954 1427739730 -1047541654
            1535222608 1097136873 1159417927 -35654797</internalNodes>
          <leafValues>
            -2.7405136823654175e-001 2.8690588474273682e-001</leafValues></_></weakClassifiers></_>
    <!-- stage 8 -->
    <_>
      <maxWeakCount>20</maxWeakCount>
      <stageThreshold>-1.3278861045837402e+000</stageThreshold>
      <weakClassifiers>
        <_>
          <internalNodes>
            0 -1 242 -638125185 -2100225 -929570849 -18603 -71831842
            -273761 -293602305 -93388801</internalNodes>
          <leafValues>
            -5.0009375810623169e-001 2.1026283502578735e-001</leafValues></_>
        <_>
          <internalNodes>
            0 -1 52 -117508097 -101453891 -21069825 -42686802 1597734783
            -570458892 -604428433 -4756681</internalNodes>
          <leafValues>
            -2.7794799208641052e-001 3.1668490171432495e-001</leafValues></_>
        <_>
          <internalNodes>
            0 -1 135 -2126999368 1585382552 927586887 2144433749
            672303787 -70675928 33629165 521112705</internalNodes>
          <leafValues>
            -3.4548494219779968e-001 2.2851663827896118e-001</leafValues></_>
        <_>
          <internalNodes>
            0 -1 206 -570989773 -137839963 1657926993 1289785400
            1589153987 -1145707626 -22043721 81526463</internalNodes>
          <leafValues>
            -3.2807800173759460e-001 2.2490130364894867e-001</leafValues></_>
        <_>
          <internalNodes>
            0 -1 120 -1040321809 -248661057 1895771091 1170993023
            -1032604936 1640276704 -33752145 -406856726</internalNodes>
          <leafValues>
            -1.6793315112590790e-001 3.9432880282402039e-001</leafValues></_>
        <_>
          <internalNodes>
            0 -1 194 407212932 271618428 268862463 521244122 -110512392
            -1076350228 972767130 -1613919574</internalNodes>
          <leafValues>
            -3.0123382806777954e-001 2.2591029107570648e-001</leafValues></_>
        <_>
          <internalNodes>
            0 -1 271 -581049370 -953707942 1078583970 1886378812
            319498240 809635846 -391200750 1362620358</internalNodes>
          <leafValues>
            -3.3200827240943909e-001 2.2435581684112549e-001</leafValues></_>
        <_>
          <internalNodes>
            0 -1 60 -1910183196 -366960426 -1433254729 2119686988
            42888413 -106534422 1796494448 1663225940</internalNodes>
          <leafValues>
            -4.9675539135932922e-001 1.2836907804012299e-001</leafValues></_>
        <_>
          <internalNodes>
            0 -1 204 -1803284744 -105207056 1989513461 1570608755
            -1208943119 -1094178604 738113726 485630972</internalNodes>
          <leafValues>
            -2.6658672094345093e-001 2.7101290225982666e-001</leafValues></_>
        <_>
          <internalNodes>
            0 -1 264 793925720 -1833217090 -2058037545 -1649733157
            1978192896 -2101565400 -1686455534 1476805555</internalNodes>
          <leafValues>
            -3.6537837982177734e-001 1.8203882873058319e-001</leafValues></_>
        <_>
          <internalNodes>
            0 -1 31 -213169409 803176535 -2096217444 1658992712
            2020992279 1650042949 -721019993 379764734</internalNodes>
          <leafValues>
            -3.4151509404182434e-001 2.0919646322727203e-001</leafValues></_>
        <_>
          <internalNodes>
            0 -1 18 -301003273 -274049110 -327270471 -1011877209
            -412721707 1577057640 -696795801 -194513673</internalNodes>
          <leafValues>
            -2.6006737351417542e-001 2.8412240743637085e-001</leafValues></_>
        <_>
          <internalNodes>
            0 -1 131 2092032928 737520107 -1118429330 1233398227
            748817186 1592711614 1644763451 686557264</internalNodes>
          <leafValues>
            -4.0491649508476257e-001 1.8722619116306305e-001</leafValues></_>
        <_>
          <internalNodes>
            0 -1 146 -1021283422 -1843916414 -16392467 2068740266
            1089618843 -617733749 1309877061 819855379</internalNodes>
          <leafValues>
            -3.6818951368331909e-001 1.9515810906887054e-001</leafValues></_>
        <_>
          <internalNodes>
            0 -1 139 -1859477462 -1601859744 369725393 1389465854
            2120647625 -1829153135 -268117285 -133179687</internalNodes>
          <leafValues>
            -2.5050923228263855e-001 3.0459767580032349e-001</leafValues></_>
        <_>
          <internalNodes>
            0 -1 290 -166341616 -749875645 42652268 1447556343
            -658008470 885147435 1073960395 -546310714</internalNodes>
          <leafValues>
            -2.5394654273986816e-001 2.9793110489845276e-001</leafValues></_>
        <_>
          <internalNodes>
            0 -1 169 1660806030 1709754951 1201936774 860598222
            -1789620317 1234668452 -489237388 -1264271756</internalNodes>
          <leafValues>
            -3.5874900221824646e-001 2.2750282287597656e-001</leafValues></_>
        <_>
          <internalNodes>
            0 -1 149 2132926654 -548573184 -996209673 -787857994
            2143072440 -22411447 152090559 -617359911</internalNodes>
          <leafValues>
            -2.3743352293968201e-001 3.2172924280166626e-001</leafValues></_>
        <_>
          <internalNodes>
            0 -1 102 1710685869 1584049143 -822232391 1874131677
            -41963649 -1277315860 -46261685 2010065679</internalNodes>
          <leafValues>
            -2.4270658195018768e-001 2.9749763011932373e-001</leafValues></_>
        <_>
          <internalNodes>
            0 -1 296 -206195758 -1305496081 185592692 314933041
            494905200 1183702625 -1610862600 -1060832317</internalNodes>
          <leafValues>
            -2.6544728875160217e-001 2.7805739641189575e-001</leafValues></_></weakClassifiers></_>
    <!-- stage 9 -->
    <_>
      <maxWeakCount>21</maxWeakCount>
      <stageThreshold>-1.5033541917800903e+000</stageThreshold>
      <weakClassifiers>
        <_>
          <internalNodes>
            0 -1 70 -12582925 -11544653 -772669441 -6561997 -6553605
            -5533704 -271852545 -37764619</internalNodes>
          <leafValues>
            -4.7769784927368164e-001 2.3705324530601501e-001</leafValues></_>
        <_>
          <internalNodes>
            0 -1 126 -1048977 -533735445 795223552 672660394 -554177189
            1458568653 -1074389418 -186647073</internalNodes>
          <leafValues>
            -2.5317570567131042e-001 3.0727460980415344e-001</leafValues></_>
        <_>
          <internalNodes>
            0 -1 286 1564423291 -203468734 268960575 1427063123
            -367277526 -1467383670 1259268859 -543176705</internalNodes>
          <leafValues>
            -1.9271595776081085e-001 3.9242380857467651e-001</leafValues></_>
        <_>
          <internalNodes>
            0 -1 81 1880306178 -102969089 924523179 -1210494757
            1902030333 1804400802 2072869535 1351154238</internalNodes>
          <leafValues>
            -3.9004969596862793e-001 1.7034006118774414e-001</leafValues></_>
        <_>
          <internalNodes>
            0 -1 220 -286413233 -1916173076 -394091535 -1396750374
            702224568 160436873 -1914877452 1018651391</internalNodes>
          <leafValues>
            -2.9015704989433289e-001 2.5856220722198486e-001</leafValues></_>
        <_>
          <internalNodes>
            0 -1 256 -740964593 -1242172565 -992280261 -256527660
            -1151731072 2064900739 1912388544 -193726830</internalNodes>
          <leafValues>
            -2.8232100605964661e-001 2.3068054020404816e-001</leafValues></_>
        <_>
          <internalNodes>
            0 -1 224 -938475504 1609523292 387207417 1495455210
            -192880112 -1087862622 1388188416 134267393</internalNodes>
          <leafValues>
            -3.6293616890907288e-001 1.9649063050746918e-001</leafValues></_>
        <_>
          <internalNodes>
            0 -1 73 -1035496734 -367611780 252735307 -467807109
            2139855842 1900296384 1560746515 1390324142</internalNodes>
          <leafValues>
            -4.3246650695800781e-001 1.3796395063400269e-001</leafValues></_>
        <_>
          <internalNodes>
            0 -1 197 345314524 500734197 -413693380 369010108 -79070248
            -1940622783 1610103420 2621618</internalNodes>
          <leafValues>
            -4.1724255681037903e-001 1.7607168853282928e-001</leafValues></_>
        <_>
          <internalNodes>
            0 -1 119 -70124929 -1713500659 1022245781 930045498
            -665258788 -1737219413 1617224140 -75538725</internalNodes>
          <leafValues>
            -1.9285391271114349e-001 3.7551289796829224e-001</leafValues></_>
        <_>
          <internalNodes>
            0 -1 123 -209205977 -39107801 653089648 -256187134
            -1912705318 -495397097 -1896179787 -993791330</internalNodes>
          <leafValues>
            -1.9026586413383484e-001 3.4153345227241516e-001</leafValues></_>
        <_>
          <internalNodes>
            0 -1 199 456654848 418393156 -1596146539 -1852215714
            137133000 -37087042 -71611139 705175726</internalNodes>
          <leafValues>
            -4.3355315923690796e-001 1.4828510582447052e-001</leafValues></_>
        <_>
          <internalNodes>
            0 -1 44 307198766 -285965457 -1600400794 1794824482
            1864517222 1449625963 630539300 1363624694</internalNodes>
          <leafValues>
            -5.8154666423797607e-001 1.1372461169958115e-001</leafValues></_>
        <_>
          <internalNodes>
            0 -1 142 2147018555 -692075984 1945516599 -794243240
            -806082598 569695696 920118235 -795962161</internalNodes>
          <leafValues>
            -2.2052620351314545e-001 3.2371959090232849e-001</leafValues></_>
        <_>
          <internalNodes>
            0 -1 63 -390410149 -725213006 -1775431205 50844012
            1655217131 -1068527725 155368115 -3156555</internalNodes>
          <leafValues>
            -1.8899327516555786e-001 3.6018759012222290e-001</leafValues></_>
        <_>
          <internalNodes>
            0 -1 147 1960153805 815303667 2041694300 1431112369
            -67437703 902310564 1126243132 789361158</internalNodes>
          <leafValues>
            -3.4081017971038818e-001 2.0408387482166290e-001</leafValues></_>
        <_>
          <internalNodes>
            0 -1 87 -119102842 -492761528 -1607969776 1381852362
            -527457880 -432378552 -2128358509 1381468763</internalNodes>
          <leafValues>
            -3.1609836220741272e-001 2.2109133005142212e-001</leafValues></_>
        <_>
          <internalNodes>
            0 -1 17 -531916141 -564145596 1544601619 -1852385320
            -343356950 2055793314 -482101293 -1988105389</internalNodes>
          <leafValues>
            -2.1059504151344299e-001 3.4224265813827515e-001</leafValues></_>
        <_>
          <internalNodes>
            0 -1 242 1096699140 530549785 -1684129841 1005476380
            1341402316 -77556838 -159589473 -1440720591</internalNodes>
          <leafValues>
            -3.4455248713493347e-001 2.0554427802562714e-001</leafValues></_>
        <_>
          <internalNodes>
            0 -1 234 -637590824 -108322807 969053296 332656756 16761068
            1811780122 17375776 -774466092</internalNodes>
          <leafValues>
            -2.9734259843826294e-001 2.5501990318298340e-001</leafValues></_>
        <_>
          <internalNodes>
            0 -1 148 1429449434 -66808774 2139382764 1364662367
            420741354 1175593119 1763210632 -542697007</internalNodes>
          <leafValues>
            -2.7393180131912231e-001 2.6809328794479370e-001</leafValues></_></weakClassifiers></_>
    <!-- stage 10 -->
    <_>
      <maxWeakCount>19</maxWeakCount>
      <stageThreshold>-1.4791735410690308e+000</stageThreshold>
      <weakClassifiers>
        <_>
          <internalNodes>
            0 -1 210 -75497473 -1940412697 -44303907 -1342203489
            -352585025 -1361316353 -102110541 -1537</internalNodes>
          <leafValues>
            -4.9793311953544617e-001 1.9825978577136993e-001</leafValues></_>
        <_>
          <internalNodes>
            0 -1 62 2079440895 -134592007 -744932481 1610161663
            1352685503 764720047 -1089500161 2146770167</internalNodes>
          <leafValues>
            -2.8632578253746033e-001 2.5991335511207581e-001</leafValues></_>
        <_>
          <internalNodes>
            0 -1 99 62918832 321343888 106993401 53768288 -903316294
            -1615151064 -1760851265 151978128</internalNodes>
          <leafValues>
            -3.9444848895072937e-001 1.7097869515419006e-001</leafValues></_>
        <_>
          <internalNodes>
            0 -1 189 -293734483 -533805185 -44605788 -2072880738
            1135964649 1371591100 834618404 1891072947</internalNodes>
          <leafValues>
            -4.0452048182487488e-001 1.5829159319400787e-001</leafValues></_>
        <_>
          <internalNodes>
            0 -1 266 -554779919 1354618072 -701610530 -187852955
            -148373728 -1845699849 -559098128 -1059873049</internalNodes>
          <leafValues>
            -2.4645778536796570e-001 2.7072319388389587e-001</leafValues></_>
        <_>
          <internalNodes>
            0 -1 128 1338771495 1138743571 -1141412937 -991970410
            1403156286 -62259181 -331150602 -1348206000</internalNodes>
          <leafValues>
            -2.8045284748077393e-001 2.3425172269344330e-001</leafValues></_>
        <_>
          <internalNodes>
            0 -1 111 -144716574 686361565 -603745208 -760223522
            1930802753 1356018804 56684386 -1854020865</internalNodes>
          <leafValues>
            -3.2724922895431519e-001 1.9585098326206207e-001</leafValues></_>
        <_>
          <internalNodes>
            0 -1 165 1128113344 2106980918 323748730 -683340805
            -244196372 2111082912 2146183914 2146214606</internalNodes>
          <leafValues>
            -3.0209690332412720e-001 2.2921226918697357e-001</leafValues></_>
        <_>
          <internalNodes>
            0 -1 55 -154180873 -560492454 1140009038 541229234
            1127366826 -2104194806 1619784346 1212846264</internalNodes>
          <leafValues>
            -3.1505268812179565e-001 2.1553845703601837e-001</leafValues></_>
        <_>
          <internalNodes>
            0 -1 79 -1423249455 1772550792 -441236611 -1635195704
            1331182591 -811946334 238996473 796988145</internalNodes>
          <leafValues>
            -2.7292218804359436e-001 2.4256290495395660e-001</leafValues></_>
        <_>
          <internalNodes>
            0 -1 182 -235355910 -82629024 1063288797 -182230733
            1513744920 -1143061191 -1652179810 -75558150</internalNodes>
          <leafValues>
            -2.0830380916595459e-001 3.4001764655113220e-001</leafValues></_>
        <_>
          <internalNodes>
            0 -1 164 1519891562 811581315 379132254 -1007556606
            1361372609 1401434766 -1552984529 1633364874</internalNodes>
          <leafValues>
            -3.8393214344978333e-001 1.7973057925701141e-001</leafValues></_>
        <_>
          <internalNodes>
            0 -1 225 251019272 502724055 -301019973 214719432 -594019120
            2006353687 -187774214 1879846000</internalNodes>
          <leafValues>
            -4.5975908637046814e-001 1.5407574176788330e-001</leafValues></_>
        <_>
          <internalNodes>
            0 -1 274 960929120 -1125665699 -1492208162 -788549665
            1006614640 905614205 -348717599 -223610434</internalNodes>
          <leafValues>
            -3.0281391739845276e-001 2.2013628482818604e-001</leafValues></_>
        <_>
          <internalNodes>
            0 -1 217 -50167262 469107688 -1557973279 423033747
            1506460341 -895734532 1136368111 -88410569</internalNodes>
          <leafValues>
            -2.3287752270698547e-001 2.8548672795295715e-001</leafValues></_>
        <_>
          <internalNodes>
            0 -1 170 -90982918 -887480073 -2098503178 699252962
            -1161856808 -959948712 -1999011196 -262820164</internalNodes>
          <leafValues>
            -2.7080294489860535e-001 2.5240969657897949e-001</leafValues></_>
        <_>
          <internalNodes>
            0 -1 285 -573582413 -8924069 453838255 2035283423
            -1254518590 -74743646 -905397281 -69231649</internalNodes>
          <leafValues>
            -1.2380822002887726e-001 5.0794404745101929e-001</leafValues></_>
        <_>
          <internalNodes>
            0 -1 97 -1504797076 109087143 -867359722 369910567 995064701
            576006711 -241935276 1745992437</internalNodes>
          <leafValues>
            -4.0507838129997253e-001 1.7012551426887512e-001</leafValues></_>
        <_>
          <internalNodes>
            0 -1 181 -1796238091 332915005 -33816597 530956181
            -1644364155 -1649545529 712181334 -1124207030</internalNodes>
          <leafValues>
            -2.0629623532295227e-001 3.3269280195236206e-001</leafValues></_></weakClassifiers></_>
    <!-- stage 11 -->
    <_>
      <maxWeakCount>20</maxWeakCount>
      <stageThreshold>-1.2153898477554321e+000</stageThreshold>
      <weakClassifiers>
        <_>
          <internalNodes>
            0 -1 23 -2103553 -3932417 -639644937 -12338722 1957587835
            -1142953838 -160603305 -2305</internalNodes>
          <leafValues>
            -4.7510981559753418e-001 1.8064075708389282e-001</leafValues></_>
        <_>
          <internalNodes>
            0 -1 198 608189817 1973195971 -1219776259 2106545310
            -554717191 -289892036 724478969 -1165488992</internalNodes>
          <leafValues>
            -2.7732962369918823e-001 2.4128967523574829e-001</leafValues></_>
        <_>
          <internalNodes>
            0 -1 74 -216269889 1337978541 -1199769061 1073741823
            1996488511 -738383210 2146950863 -140641297</internalNodes>
          <leafValues>
            -1.7901267111301422e-001 3.7535947561264038e-001</leafValues></_>
        <_>
          <internalNodes>
            0 -1 118 1397701287 1541401565 870058340 1902116333 -4194305
            698102756 2136329199 -69229654</internalNodes>
          <leafValues>
            -1.7907249927520752e-001 3.4331992268562317e-001</leafValues></_>
        <_>
          <internalNodes>
            0 -1 250 1582448849 -606250659 710999341 1440417047
            1046920426 -555597688 -2017962113 -545089585</internalNodes>
          <leafValues>
            -2.1001535654067993e-001 2.8922572731971741e-001</leafValues></_>
        <_>
          <internalNodes>
            0 -1 47 2075127339 1044961274 -657949954 -1298637858
            2092399449 1818970670 -899259096 2060842367</internalNodes>
          <leafValues>
            -3.1789618730545044e-001 2.0205327868461609e-001</leafValues></_>
        <_>
          <internalNodes>
            0 -1 38 -95618856 -670053098 865170832 -804562857
            -1543444222 539145858 -2112625165 -2095101559</internalNodes>
          <leafValues>
            -2.3697195947170258e-001 2.5930070877075195e-001</leafValues></_>
        <_>
          <internalNodes>
            0 -1 229 1593034119 2106802007 -34529 1352135405 -587835703
            804691804 -864035408 -253313577</internalNodes>
          <leafValues>
            -2.4233812093734741e-001 2.6155775785446167e-001</leafValues></_>
        <_>
          <internalNodes>
            0 -1 212 -973105136 156145372 -77956787 1441276145 667551667
            -1848185101 1404994791 -1614021141</internalNodes>
          <leafValues>
            -2.2770331799983978e-001 2.7338767051696777e-001</leafValues></_>
        <_>
          <internalNodes>
            0 -1 196 -105912841 1619259552 -303047235 -2087976984
            770128999 -1210583320 1700035683 -37798744</internalNodes>
          <leafValues>
            -1.9841036200523376e-001 3.1504985690116882e-001</leafValues></_>
        <_>
          <internalNodes>
            0 -1 5 1246554310 1434241619 -1583824627 1215207580
            1298904792 -1664072768 -1972913823 1741689840</internalNodes>
          <leafValues>
            -4.4236019253730774e-001 1.4861167967319489e-001</leafValues></_>
        <_>
          <internalNodes>
            0 -1 163 880571008 291020664 807088942 -1717630496 990914006
            1401698508 -1569948810 1485646376</internalNodes>
          <leafValues>
            -4.1602823138237000e-001 1.4585307240486145e-001</leafValues></_>
        <_>
          <internalNodes>
            0 -1 230 -747204477 1406634008 662517691 1582927636
            -1913384278 -1950901571 -1185487953 -1124190646</internalNodes>
          <leafValues>
            -2.2363150119781494e-001 2.8594908118247986e-001</leafValues></_>
        <_>
          <internalNodes>
            0 -1 280 -304792625 1089148445 1958938222 -1561466898
            1716670725 1187881671 2040990464 1432877842</internalNodes>
          <leafValues>
            -3.0865067243576050e-001 2.0651841163635254e-001</leafValues></_>
        <_>
          <internalNodes>
            0 -1 153 -683377447 1432109768 404027615 -80428410
            -1177921844 -1305337318 1510536094 -1085567540</internalNodes>
          <leafValues>
            -1.8576464056968689e-001 3.3782917261123657e-001</leafValues></_>
        <_>
          <internalNodes>
            0 -1 25 -662589196 -1941548860 285737497 1457115473
            -628114774 -912073976 -1186868336 -712511471</internalNodes>
          <leafValues>
            -2.6794779300689697e-001 2.4416065216064453e-001</leafValues></_>
        <_>
          <internalNodes>
            0 -1 109 -587613690 -356111958 -87550846 1347004617
            1523765998 -737985316 -242486826 -1774194722</internalNodes>
          <leafValues>
            -2.4409618973731995e-001 2.7171826362609863e-001</leafValues></_>
        <_>
          <internalNodes>
            0 -1 186 -578063302 -33677227 1141927197 2011156189
            -524798920 -1048584678 687882217 -67142210</internalNodes>
          <leafValues>
            -2.0547394454479218e-001 3.1487095355987549e-001</leafValues></_>
        <_>
          <internalNodes>
            0 -1 283 2064110747 -218640173 -1194731753 -359943633
            1883674859 -1052528560 -646717557 -1818237953</internalNodes>
          <leafValues>
            -1.5648230910301208e-001 3.9233696460723877e-001</leafValues></_>
        <_>
          <internalNodes>
            0 -1 57 -2079192904 713574594 -1875698307 265094409
            -108826135 629707216 856407034 1309316483</internalNodes>
          <leafValues>
            -3.5979396104812622e-001 1.8818198144435883e-001</leafValues></_></weakClassifiers></_>
    <!-- stage 12 -->
    <_>
      <maxWeakCount>22</maxWeakCount>
      <stageThreshold>-1.3702957630157471e+000</stageThreshold>
      <weakClassifiers>
        <_>
          <internalNodes>
            0 -1 13 2146957247 -136457252 -84410889 -3147801 2075130879
            -6030354 1936029687 -2105</internalNodes>
          <leafValues>
            -5.1017117500305176e-001 1.0274669528007507e-001</leafValues></_>
        <_>
          <internalNodes>
            0 -1 178 -846217225 -184828937 -652094663 1086061777
            -1471217205 -104189797 923893035 -2063599649</internalNodes>
          <leafValues>
            -2.7513462305068970e-001 2.4352855980396271e-001</leafValues></_>
        <_>
          <internalNodes>
            0 -1 61 -2131516766 1213656310 -1929048162 -1410197510
            -825745491 -1361733223 -1416922146 1964203796</internalNodes>
          <leafValues>
            -4.0861073136329651e-001 1.6039586067199707e-001</leafValues></_>
        <_>
          <internalNodes>
            0 -1 281 -573369321 -612902863 1418105331 -551743457
            -1197934405 -91580277 2768127 -541361413</internalNodes>
          <leafValues>
            -1.6265720129013062e-001 3.7519744038581848e-001</leafValues></_>
        <_>
          <internalNodes>
            0 -1 141 1936184611 -739349237 -415760645 -1328021670
            -1361646337 -792794115 -152688898 -1067911506</internalNodes>
          <leafValues>
            -1.6738566756248474e-001 3.3406922221183777e-001</leafValues></_>
        <_>
          <internalNodes>
            0 -1 53 -1172722232 -6365895 -1537505018 -347512116
            -1499791361 -176046070 -73158029 918423086</internalNodes>
          <leafValues>
            -3.2740673422813416e-001 1.8121200799942017e-001</leafValues></_>
        <_>
          <internalNodes>
            0 -1 171 768720685 340127358 553658062 1071417034 344048769
            499368173 -2142238536 1021345368</internalNodes>
          <leafValues>
            -4.2068952322006226e-001 1.4593055844306946e-001</leafValues></_>
        <_>
          <internalNodes>
            0 -1 276 -418123578 -1057367345 -488324344 -737849042
            -1570011648 607588976 -681903131 -247758929</internalNodes>
          <leafValues>
            -2.7868187427520752e-001 2.1651546657085419e-001</leafValues></_>
        <_>
          <internalNodes>
            0 -1 11 2145356411 -1210346268 1355141233 492654927
            -111451413 -895778678 1898163099 -81851973</internalNodes>
          <leafValues>
            -1.4947623014450073e-001 4.0768876671791077e-001</leafValues></_>
        <_>
          <internalNodes>
            0 -1 179 1409333698 1521824988 339837790 1431873160
            1879080488 -975394940 2110606552 1006315686</internalNodes>
          <leafValues>
            -3.3132466673851013e-001 1.8542957305908203e-001</leafValues></_>
        <_>
          <internalNodes>
            0 -1 246 -1493752888 4361446 -1341224172 714642096
            1715147556 360291111 1209075756 301093664</internalNodes>
          <leafValues>
            -5.3744703531265259e-001 1.2024364620447159e-001</leafValues></_>
        <_>
          <internalNodes>
            0 -1 167 873767368 479549917 -1440938102 -1143974 1899348868
            1695845240 -1633286210 -187955014</internalNodes>
          <leafValues>
            -3.3395412564277649e-001 1.7002382874488831e-001</leafValues></_>
        <_>
          <internalNodes>
            0 -1 287 -809313536 -1752413825 -1063869601 1393627305
            -771719606 -87390070 42229386 277599147</internalNodes>
          <leafValues>
            -2.7301552891731262e-001 2.3608291149139404e-001</leafValues></_>
        <_>
          <internalNodes>
            0 -1 282 2131021173 -1747632017 2052207919 428807384
            -1844547576 -1876721655 534442169 -228444090</internalNodes>
          <leafValues>
            -2.5041282176971436e-001 2.5760042667388916e-001</leafValues></_>
        <_>
          <internalNodes>
            0 -1 86 -480146650 1929868311 -1030321829 810750754
            -45755350 1535481191 173844074 282271982</internalNodes>
          <leafValues>
            -2.9604929685592651e-001 2.2085551917552948e-001</leafValues></_>
        <_>
          <internalNodes>
            0 -1 83 -1988002327 -829480160 1929869716 63425552 462512810
            -1742798192 218881791 2005880049</internalNodes>
          <leafValues>
            -3.0112540721893311e-001 2.0941066741943359e-001</leafValues></_>
        <_>
          <internalNodes>
            0 -1 258 -343951365 -1210622025 -782734446 -227060246
            -912309743 560056222 -92057432 1366808600</internalNodes>
          <leafValues>
            -2.5473117828369141e-001 2.5919991731643677e-001</leafValues></_>
        <_>
          <internalNodes>
            0 -1 67 -1352981511 747436219 1555374798 -19732397 491500334
            1832610390 -1231604890 -1531447564</internalNodes>
          <leafValues>
            -3.1784448027610779e-001 2.0558576285839081e-001</leafValues></_>
        <_>
          <internalNodes>
            0 -1 145 1062999317 1884618213 1473294967 320812250
            189604214 -637259562 -684624140 821043536</internalNodes>
          <leafValues>
            -3.7231853604316711e-001 1.7681564390659332e-001</leafValues></_>
        <_>
          <internalNodes>
            0 -1 28 -537832965 -26031366 -2041494840 1129797069
            -1364355598 -1994682222 1925678439 -548954210</internalNodes>
          <leafValues>
            -2.0366673171520233e-001 3.2418832182884216e-001</leafValues></_>
        <_>
          <internalNodes>
            0 -1 185 -773129768 -179367011 -1640450603 974483001
            -549909792 -77760516 470133404 -1684335973</internalNodes>
          <leafValues>
            -2.1014508605003357e-001 3.2090497016906738e-001</leafValues></_>
        <_>
          <internalNodes>
            0 -1 241 1441006192 487284779 1498204437 467612374 773643997
            -27358618 -249288355 738210688</internalNodes>
          <leafValues>
            -4.6726241707801819e-001 1.4971698820590973e-001</leafValues></_></weakClassifiers></_>
    <!-- stage 13 -->
    <_>
      <maxWeakCount>22</maxWeakCount>
      <stageThreshold>-1.2812978029251099e+000</stageThreshold>
      <weakClassifiers>
        <_>
          <internalNodes>
            0 -1 89 -14680221 -572523777 -485229611 -68730661 -814767185
            -74728229 -142877265 -1025</internalNodes>
          <leafValues>
            -4.2815440893173218e-001 4.0392157435417175e-001</leafValues></_>
        <_>
          <internalNodes>
            0 -1 40 -814743977 -1697722095 1091546620 -551747618
            -240042445 1549040687 2060208948 1767373039</internalNodes>
          <leafValues>
            -3.3084210753440857e-001 1.8009689450263977e-001</leafValues></_>
        <_>
          <internalNodes>
            0 -1 252 -1125127089 -71320369 -1082343429 -276922705
            -53621794 -269484865 -18188337 -17903657</internalNodes>
          <leafValues>
            -1.8811677396297455e-001 3.1904458999633789e-001</leafValues></_>
        <_>
          <internalNodes>
            0 -1 216 471637245 815081605 -1622374403 -704718186
            -1083670351 -1109344116 492928190 149135244</internalNodes>
          <leafValues>
            -2.5167566537857056e-001 2.2404465079307556e-001</leafValues></_>
        <_>
          <internalNodes>
            0 -1 95 -1582573842 -347340888 240102160 -1090797944
            -273417637 -1056910004 -1751646557 -168371490</internalNodes>
          <leafValues>
            -1.6474127769470215e-001 3.3188885450363159e-001</leafValues></_>
        <_>
          <internalNodes>
            0 -1 113 185610928 957196928 135850097 201008413 1000041147
            -24319808 941694190 187534713</internalNodes>
          <leafValues>
            -3.9148405194282532e-001 1.2649610638618469e-001</leafValues></_>
        <_>
          <internalNodes>
            0 -1 115 1936454374 1516213675 1948037830 1033749571
            -748972281 1426593992 -1283151554 337492620</internalNodes>
          <leafValues>
            -3.8303458690643311e-001 1.8507553637027740e-001</leafValues></_>
        <_>
          <internalNodes>
            0 -1 214 -991061304 -187964670 -2109173688 -1069274428
            -658114366 -1041141134 1755109152 -988505526</internalNodes>
          <leafValues>
            -3.1684711575508118e-001 1.7194715142250061e-001</leafValues></_>
        <_>
          <internalNodes>
            0 -1 257 -1477499606 -1143478478 1444761972 15184372
            -993837628 -1709980167 1722937216 1387763655</internalNodes>
          <leafValues>
            -3.2675692439079285e-001 1.8143050372600555e-001</leafValues></_>
        <_>
          <internalNodes>
            0 -1 58 -2046779150 -1507686390 -1660380965 1279431421
            -289523222 1203476874 -401863218 -115853456</internalNodes>
          <leafValues>
            -3.0624520778656006e-001 1.8788225948810577e-001</leafValues></_>
        <_>
          <internalNodes>
            0 -1 64 1940710362 -60789803 336660863 -1771679314 843205476
            -1795860576 -105436137 2132085621</internalNodes>
          <leafValues>
            -3.3729839324951172e-001 1.8041671812534332e-001</leafValues></_>
        <_>
          <internalNodes>
            0 -1 262 -362112658 -464522900 -389971584 -525941364
            -741068032 571716625 1409926976 1368854415</internalNodes>
          <leafValues>
            -4.2294582724571228e-001 1.3528889417648315e-001</leafValues></_>
        <_>
          <internalNodes>
            0 -1 233 -1788568352 -1818762718 -404456579 -2089420107
            -596139278 -1192986138 1413976313 -768439754</internalNodes>
          <leafValues>
            -2.3699487745761871e-001 2.6196071505546570e-001</leafValues></_>
        <_>
          <internalNodes>
            0 -1 43 -1292224837 -870919090 269471938 1414447838
            -528256368 1613889736 1375949702 1447951246</internalNodes>
          <leafValues>
            -3.2166463136672974e-001 1.8421335518360138e-001</leafValues></_>
        <_>
          <internalNodes>
            0 -1 107 -106859777 -780005171 -834214182 -213553203
            -1264062482 -377587210 62314179 -1068587309</internalNodes>
          <leafValues>
            -1.9981181621551514e-001 3.1226563453674316e-001</leafValues></_>
        <_>
          <internalNodes>
            0 -1 193 -631633262 1927179232 76216253 782046435 1288058538
            2124280015 -1083927589 -1671493009</internalNodes>
          <leafValues>
            -2.3043772578239441e-001 2.6405954360961914e-001</leafValues></_>
        <_>
          <internalNodes>
            0 -1 137 -613421505 880803565 612318305 -1073881605
            1845351829 989691623 -1126220308 -1392529426</internalNodes>
          <leafValues>
            -2.0463651418685913e-001 3.1984949111938477e-001</leafValues></_>
        <_>
          <internalNodes>
            0 -1 200 -1107828737 1043601666 2147154879 -580518538
            -1079124369 -1343405059 1500904943 -359691782</internalNodes>
          <leafValues>
            -1.6800437867641449e-001 3.8364699482917786e-001</leafValues></_>
        <_>
          <internalNodes>
            0 -1 203 -33573462 -1764692106 229391178 1498816250
            601678189 -2037213211 376769468 -206094440</internalNodes>
          <leafValues>
            -2.1860887110233307e-001 2.8763726353645325e-001</leafValues></_>
        <_>
          <internalNodes>
            0 -1 239 -1359107856 779933430 -544043646 -1419727704
            1462875821 780034440 432491956 343184541</internalNodes>
          <leafValues>
            -4.3236726522445679e-001 1.5869778394699097e-001</leafValues></_>
        <_>
          <internalNodes>
            0 -1 155 803477116 -1614306656 1422400501 -722521729
            -887685077 -399280078 -1789381189 -954647344</internalNodes>
          <leafValues>
            -2.8137174248695374e-001 2.2333665192127228e-001</leafValues></_>
        <_>
          <internalNodes>
            0 -1 187 808808693 1187526636 -323718054 751672302
            1906378405 -1718841560 1086272052 -1124999823</internalNodes>
          <leafValues>
            -2.8295594453811646e-001 2.2656124830245972e-001</leafValues></_></weakClassifiers></_>
    <!-- stage 14 -->
    <_>
      <maxWeakCount>24</maxWeakCount>
      <stageThreshold>-1.4356803894042969e+000</stageThreshold>
      <weakClassifiers>
        <_>
          <internalNodes>
            0 -1 24 -2098177 -30424071 -2095197697 -1677736457
            -683182329 -881636929 2139576543 -1</internalNodes>
          <leafValues>
            -4.7816514968872070e-001 1.8568535149097443e-001</leafValues></_>
        <_>
          <internalNodes>
            0 -1 124 -34474198 -464587159 -2094283006 546240442
            -421814047 1618651919 -255330905 -161366050</internalNodes>
          <leafValues>
            -2.8941276669502258e-001 2.0091116428375244e-001</leafValues></_>
        <_>
          <internalNodes>
            0 -1 129 1225296571 1022438288 2056364263 -548952359
            -2038394661 -1163157268 -642696513 971460073</internalNodes>
          <leafValues>
            -2.3619249463081360e-001 2.4245579540729523e-001</leafValues></_>
        <_>
          <internalNodes>
            0 -1 175 1044397941 -1148052016 -420040899 -12697865
            -1131500338 -1076641829 -1812250642 -1882906100</internalNodes>
          <leafValues>
            -2.1380354464054108e-001 2.6481357216835022e-001</leafValues></_>
        <_>
          <internalNodes>
            0 -1 227 -787486192 -1956746346 -685056179 738308471
            -1063742620 -531289435 1042762496 1089363154</internalNodes>
          <leafValues>
            -3.5055774450302124e-001 1.9355370104312897e-001</leafValues></_>
        <_>
          <internalNodes>
            0 -1 138 -4326915 -1082140889 796802419 1609031664 -10704952
            -1762760968 -532135736 -34603297</internalNodes>
          <leafValues>
            -1.8380506336688995e-001 3.6599728465080261e-001</leafValues></_>
        <_>
          <internalNodes>
            0 -1 251 -1886584782 530731208 1905350551 -787544855
            1524545616 -340875118 1529451287 -632944395</internalNodes>
          <leafValues>
            -2.6515477895736694e-001 2.1730440855026245e-001</leafValues></_>
        <_>
          <internalNodes>
            0 -1 27 -432278593 -760880470 1858719818 1396510831
            -216291258 -1820157421 1950604471 -145492065</internalNodes>
          <leafValues>
            -1.9619318842887878e-001 3.0382931232452393e-001</leafValues></_>
        <_>
          <internalNodes>
            0 -1 188 1435892590 -193865737 1568978606 -1226272866
            1733667530 279301252 -1084777672 -2063814676</internalNodes>
          <leafValues>
            -2.7113854885101318e-001 2.1422202885150909e-001</leafValues></_>
        <_>
          <internalNodes>
            0 -1 260 553576228 216751606 -939325198 680431190 218590065
            1320164911 9397074 1432784880</internalNodes>
          <leafValues>
            -4.4182059168815613e-001 1.2872518599033356e-001</leafValues></_>
        <_>
          <internalNodes>
            0 -1 110 -1220145338 -876885530 -91602940 604194392
            1669856456 1129321316 -216329438 1937497166</internalNodes>
          <leafValues>
            -3.5078114271163940e-001 1.4975473284721375e-001</leafValues></_>
        <_>
          <internalNodes>
            0 -1 228 -208779231 502206649 328345148 197085655 1221757140
            196655331 230815947 -1105588577</internalNodes>
          <leafValues>
            -2.6519021391868591e-001 2.1431855857372284e-001</leafValues></_>
        <_>
          <internalNodes>
            0 -1 130 -73293261 2016283524 1139183228 -774974812
            588915070 -55731490 -114273451 147276884</internalNodes>
          <leafValues>
            -3.0499482154846191e-001 1.9113267958164215e-001</leafValues></_>
        <_>
          <internalNodes>
            0 -1 213 1080145026 -612343136 1500779481 -544585919
            -452348496 -2001627196 1437389936 -1880119301</internalNodes>
          <leafValues>
            -2.2879782319068909e-001 2.5608205795288086e-001</leafValues></_>
        <_>
          <internalNodes>
            0 -1 68 -704862293 -380862028 1142002975 1075200146
            673872811 -1432944087 143292666 1210748678</internalNodes>
          <leafValues>
            -2.6144263148307800e-001 2.2368639707565308e-001</leafValues></_>
        <_>
          <internalNodes>
            0 -1 91 -1545654527 -83257549 -981825378 704935594
            -577091673 -1921031313 2007299747 1688336350</internalNodes>
          <leafValues>
            -2.7805885672569275e-001 2.1013249456882477e-001</leafValues></_>
        <_>
          <internalNodes>
            0 -1 244 -163751216 -1861710670 -798769067 1481986538
            1267223572 -787751802 2113486027 -546164598</internalNodes>
          <leafValues>
            -2.4424880743026733e-001 2.4133938550949097e-001</leafValues></_>
        <_>
          <internalNodes>
            0 -1 159 -141172997 -76155525 2130128729 1337356277
            -377492497 -268555766 -9095525 -1108663825</internalNodes>
          <leafValues>
            -1.5094807744026184e-001 4.1076767444610596e-001</leafValues></_>
        <_>
          <internalNodes>
            0 -1 195 1464070646 -261298428 828714976 1030835189
            -986029586 -1135045313 1691805828 2076942511</internalNodes>
          <leafValues>
            -2.2831314802169800e-001 2.5965222716331482e-001</leafValues></_>
        <_>
          <internalNodes>
            0 -1 85 1057139667 -2055051378 -1061398017 -1618152122
            141321390 1039609245 -945372346 -982462268</internalNodes>
          <leafValues>
            -2.8909137845039368e-001 2.1910010278224945e-001</leafValues></_>
        <_>
          <internalNodes>
            0 -1 168 -1717179309 -1530303778 -1937754630 2146144522
            819548197 -1064772802 277722740 753540868</internalNodes>
          <leafValues>
            -3.2995083928108215e-001 1.9131565093994141e-001</leafValues></_>
        <_>
          <internalNodes>
            0 -1 99 -2103396715 -756065894 -1536060086 1598880869
            -223478085 -539981685 431474875 -1737610036</internalNodes>
          <leafValues>
            -2.4896177649497986e-001 2.5667420029640198e-001</leafValues></_>
        <_>
          <internalNodes>
            0 -1 293 1474274059 -1806041219 1332726346 -1335363939
            2111626866 -1109103396 -947931176 -974917818</internalNodes>
          <leafValues>
            -2.1079018712043762e-001 3.0980455875396729e-001</leafValues></_>
        <_>
          <internalNodes>
            0 -1 162 -433987438 1448959070 1852719476 -749962059
            -652791096 -399495412 2058260462 -83116305</internalNodes>
          <leafValues>
            -2.1598476171493530e-001 3.1273439526557922e-001</leafValues></_></weakClassifiers></_>
    <!-- stage 15 -->
    <_>
      <maxWeakCount>23</maxWeakCount>
      <stageThreshold>-1.2089811563491821e+000</stageThreshold>
      <weakClassifiers>
        <_>
          <internalNodes>
            0 -1 20 -67175073 -162150405 -854338851 -8830721 2031450927
            -1080821671 1929081655 -75499521</internalNodes>
          <leafValues>
            -4.7708690166473389e-001 1.0645932704210281e-001</leafValues></_>
        <_>
          <internalNodes>
            0 -1 191 -1307445827 769104312 -653198787 1052625766
            2126179324 -1107563847 -57289304 -1468073745</internalNodes>
          <leafValues>
            -2.6616859436035156e-001 2.4043919146060944e-001</leafValues></_>
        <_>
          <internalNodes>
            0 -1 84 -1455691600 1008790848 154655071 698861954 607631771
            -1080480840 1096437973 -564148351</internalNodes>
          <leafValues>
            -2.6995164155960083e-001 2.0076879858970642e-001</leafValues></_>
        <_>
          <internalNodes>
            0 -1 106 -185336097 838205321 1786187586 -957880479
            -579281070 -1336727738 -167724694 -82576005</internalNodes>
          <leafValues>
            -1.7790283262729645e-001 2.9456022381782532e-001</leafValues></_>
        <_>
          <internalNodes>
            0 -1 144 2099033540 -35770327 1338492939 727781451
            1033170927 -1542380832 -1886368460 81801572</internalNodes>
          <leafValues>
            -2.7738079428672791e-001 2.1784745156764984e-001</leafValues></_>
        <_>
          <internalNodes>
            0 -1 77 -35132433 -216121811 -130053822 1383513070
            -1001661717 -2017140924 1437988546 -141697866</internalNodes>
          <leafValues>
            -2.1847368776798248e-001 2.5963458418846130e-001</leafValues></_>
        <_>
          <internalNodes>
            0 -1 172 272433629 1541159927 -779609192 933833858 -1557901
            173645625 1217145836 449854120</internalNodes>
          <leafValues>
            -3.7474590539932251e-001 1.6579462587833405e-001</leafValues></_>
        <_>
          <internalNodes>
            0 -1 289 -689980928 1425510487 -1203486575 875495530
            1204175432 120456204 543312078 3539531</internalNodes>
          <leafValues>
            -3.5364010930061340e-001 1.5604381263256073e-001</leafValues></_>
        <_>
          <internalNodes>
            0 -1 183 309392266 2115042588 1459954042 -1188660838
            316935282 818222622 661895147 2103257770</internalNodes>
          <leafValues>
            -3.3824405074119568e-001 1.6176010668277740e-001</leafValues></_>
        <_>
          <internalNodes>
            0 -1 279 -12868897 -174958480 -2135068112 -221283785
            1222697006 1723299006 590798947 -672140917</internalNodes>
          <leafValues>
            -2.1193467080593109e-001 2.6498305797576904e-001</leafValues></_>
        <_>
          <internalNodes>
            0 -1 240 1421365268 1509628111 9949615 -1816541811
            1491624489 -763230040 686916235 -1702230926</internalNodes>
          <leafValues>
            -2.6651373505592346e-001 2.1054215729236603e-001</leafValues></_>
        <_>
          <internalNodes>
            0 -1 154 852351436 -317026619 1984793355 -1548491953
            -1306723397 353403648 -2017774909 2072809658</internalNodes>
          <leafValues>
            -2.8640887141227722e-001 1.9114764034748077e-001</leafValues></_>
        <_>
          <internalNodes>
            0 -1 90 1634181122 954703012 -302067729 2101042194
            1152969578 -1997638666 1417558247 -1059072734</internalNodes>
          <leafValues>
            -2.2433960437774658e-001 2.5384414196014404e-001</leafValues></_>
        <_>
          <internalNodes>
            0 -1 207 -670463072 280776580 -814089603 -139470673
            -956446481 -625871053 255216568 -1154501154</internalNodes>
          <leafValues>
            -1.8848401308059692e-001 2.9689636826515198e-001</leafValues></_>
        <_>
          <internalNodes>
            0 -1 88 2013211199 1231358858 1358586424 -1603401026
            -570657045 -1368520443 -1017291561 -1873100839</internalNodes>
          <leafValues>
            -2.3952133953571320e-001 2.4428708851337433e-001</leafValues></_>
        <_>
          <internalNodes>
            0 -1 0 -163340101 -2032691006 938005702 320294935 -878167857
            -1147666040 -73535537 -75510882</internalNodes>
          <leafValues>
            -1.5513005852699280e-001 3.5711020231246948e-001</leafValues></_>
        <_>
          <internalNodes>
            0 -1 105 -733152462 2101576535 1090749360 -1338928553
            536981130 -68574753 -1127552506 813840162</internalNodes>
          <leafValues>
            -3.4949120879173279e-001 1.6699467599391937e-001</leafValues></_>
        <_>
          <internalNodes>
            0 -1 278 -656535493 -80928518 -2125300805 -540946216
            -570293021 -2011430824 1275212528 1523198376</internalNodes>
          <leafValues>
            -2.5919690728187561e-001 2.1746022999286652e-001</leafValues></_>
        <_>
          <internalNodes>
            0 -1 261 -69797984 -900826870 -1919957694 946537293
            -150790906 1082429028 827658948 -1822378897</internalNodes>
          <leafValues>
            -3.1313994526863098e-001 1.7980794608592987e-001</leafValues></_>
        <_>
          <internalNodes>
            0 -1 249 -617147074 -1347216063 -194507330 695809333
            -1597666083 -277800800 -376877494 2094962075</internalNodes>
          <leafValues>
            -2.3312385380268097e-001 2.5465017557144165e-001</leafValues></_>
        <_>
          <internalNodes>
            0 -1 255 -170385872 1028726850 940088845 34024096 1302993061
            1287661276 -1072207564 876614376</internalNodes>
          <leafValues>
            -4.5026540756225586e-001 1.2396705895662308e-001</leafValues></_>
        <_>
          <internalNodes>
            0 -1 104 51995680 348455358 856853430 894345510 -1731991945
            277121640 1887642486 1360800758</internalNodes>
          <leafValues>
            -5.2629429101943970e-001 1.1219543963670731e-001</leafValues></_>
        <_>
          <internalNodes>
            0 -1 166 -521655054 -16523152 -2082117464 1534976
            -1200575346 -719582340 -1291007087 -1633155688</internalNodes>
          <leafValues>
            -2.8070941567420959e-001 2.1764358878135681e-001</leafValues></_></weakClassifiers></_>
    <!-- stage 16 -->
    <_>
      <maxWeakCount>22</maxWeakCount>
      <stageThreshold>-1.2111815214157104e+000</stageThreshold>
      <weakClassifiers>
        <_>
          <internalNodes>
            0 -1 19 1912589055 -3162371 -154686241 -1073768481
            2108390398 -121902143 2073773047 -1025</internalNodes>
          <leafValues>
            -4.4095158576965332e-001 2.5239005684852600e-001</leafValues></_>
        <_>
          <internalNodes>
            0 -1 235 -319029249 -1058292001 -1074808551 847200179
            -360841301 -1409474564 -2113973186 -167774721</internalNodes>
          <leafValues>
            -2.3268006742000580e-001 2.7809724211692810e-001</leafValues></_>
        <_>
          <internalNodes>
            0 -1 248 -806886258 -459076664 -418894292 1750661116
            -395390625 20845096 859719232 1431079876</internalNodes>
          <leafValues>
            -3.6160421371459961e-001 1.5002742409706116e-001</leafValues></_>
        <_>
          <internalNodes>
            0 -1 80 2074315920 388813878 -87175737 -86696204 1757328109
            -68247114 885394624 31794369</internalNodes>
          <leafValues>
            -3.5151904821395874e-001 1.4928899705410004e-001</leafValues></_>
        <_>
          <internalNodes>
            0 -1 66 -426349017 73822500 -1583961058 -1532204406
            -73780449 1757182167 1957372791 1148234966</internalNodes>
          <leafValues>
            -3.7975153326988220e-001 1.5559542179107666e-001</leafValues></_>
        <_>
          <internalNodes>
            0 -1 150 -556363688 921764361 77873307 2075070908
            -1160277378 946471496 334987 -614764801</internalNodes>
          <leafValues>
            -1.7405381798744202e-001 3.0090835690498352e-001</leafValues></_>
        <_>
          <internalNodes>
            0 -1 281 362480670 -615297019 352670007 2132038679 822310554
            -553072608 37440189 496730770</internalNodes>
          <leafValues>
            -2.9949301481246948e-001 1.7811131477355957e-001</leafValues></_>
        <_>
          <internalNodes>
            0 -1 190 500239645 -1327634971 1157874157 -2484098
            -1190543670 -957497105 -45999954 -1962275960</internalNodes>
          <leafValues>
            -2.3826631903648376e-001 2.4016298353672028e-001</leafValues></_>
        <_>
          <internalNodes>
            0 -1 50 -1258821673 -383320574 -1479553899 352014335
            2138477534 -2088189764 668158715 1423760351</internalNodes>
          <leafValues>
            -2.1855612099170685e-001 2.5062665343284607e-001</leafValues></_>
        <_>
          <internalNodes>
            0 -1 268 -1378353263 527947662 -150988875 850522435
            -208848768 771392830 -77607106 1356259187</internalNodes>
          <leafValues>
            -2.4174258112907410e-001 2.3242001235485077e-001</leafValues></_>
        <_>
          <internalNodes>
            0 -1 121 -1303076014 -235649557 1410351259 1741260847
            -758553871 591446114 60525999 -1277617198</internalNodes>
          <leafValues>
            -2.6054623723030090e-001 2.1427702903747559e-001</leafValues></_>
        <_>
          <internalNodes>
            0 -1 202 1470889074 1953018642 1943417196 -1079755336
            -541718596 -302875228 1651411444 -1681916173</internalNodes>
          <leafValues>
            -2.1824741363525391e-001 2.5860273838043213e-001</leafValues></_>
        <_>
          <internalNodes>
            0 -1 114 -81543519 1961541547 -835797127 -1083228502
            1982840701 -2030601474 1574000066 -1575390505</internalNodes>
          <leafValues>
            -2.3023611307144165e-001 2.4733503162860870e-001</leafValues></_>
        <_>
          <internalNodes>
            0 -1 100 140718752 -1379141699 237936125 -1140827197
            -1109972551 -1146231311 -1222904582 739771824</internalNodes>
          <leafValues>
            -3.9638894796371460e-001 1.4157560467720032e-001</leafValues></_>
        <_>
          <internalNodes>
            0 -1 122 -374351685 -1195432854 -1108722966 603470786
            -1125286171 -379228944 -866865224 -486887754</internalNodes>
          <leafValues>
            -2.1749193966388702e-001 2.6580160856246948e-001</leafValues></_>
        <_>
          <internalNodes>
            0 -1 22 725346843 -2102218718 -798329613 311021941 73038778
            1938420168 1884781952 -763666926</internalNodes>
          <leafValues>
            -2.4103336036205292e-001 2.3470713198184967e-001</leafValues></_>
        <_>
          <internalNodes>
            0 -1 215 -608540744 -108696092 680437288 -542938044
            -1347113778 149583057 -642357365 -1344337265</internalNodes>
          <leafValues>
            -1.9379641115665436e-001 3.1164681911468506e-001</leafValues></_>
        <_>
          <internalNodes>
            0 -1 218 -1981227855 194266084 1240878357 1166866200
            -1796430594 -1418954146 -744037226 -1228594570</internalNodes>
          <leafValues>
            -2.4545507133007050e-001 2.4495384097099304e-001</leafValues></_>
        <_>
          <internalNodes>
            0 -1 201 1204662962 1605195138 878164879 -1111962313
            -1750047379 -1115934854 766918598 -845207046</internalNodes>
          <leafValues>
            -2.3199257254600525e-001 2.6358136534690857e-001</leafValues></_>
        <_>
          <internalNodes>
            0 -1 56 1148363047 784622667 -396181018 1828115462 738205795
            1790783007 -1924509340 1122057009</internalNodes>
          <leafValues>
            -4.9243989586830139e-001 1.2553752958774567e-001</leafValues></_>
        <_>
          <internalNodes>
            0 -1 34 -1618021281 1594166985 -402598714 -1366788072
            413491533 -98711299 1312900859 714493435</internalNodes>
          <leafValues>
            -3.1752139329910278e-001 1.9163127243518829e-001</leafValues></_>
        <_>
          <internalNodes>
            0 -1 263 -1719230383 -2484139 553980060 365645946 -607108440
            -98023270 22763 1331335955</internalNodes>
          <leafValues>
            -2.5018498301506042e-001 2.3496630787849426e-001</leafValues></_></weakClassifiers></_>
    <!-- stage 17 -->
    <_>
      <maxWeakCount>22</maxWeakCount>
      <stageThreshold>-1.0911092758178711e+000</stageThreshold>
      <weakClassifiers>
        <_>
          <internalNodes>
            0 -1 108 -15732957 2136988559 -1802266273 -3935365
            -748706897 -543958593 -386536705 -4097</internalNodes>
          <leafValues>
            -4.3724831938743591e-001 2.8321316838264465e-001</leafValues></_>
        <_>
          <internalNodes>
            0 -1 160 -710950507 899481723 -1894557537 -1401566441
            -22203201 -1120142453 -274792740 544472815</internalNodes>
          <leafValues>
            -3.0648440122604370e-001 1.7870078980922699e-001</leafValues></_>
        <_>
          <internalNodes>
            0 -1 156 -182714442 -429525778 -2012423444 34350472
            -190735645 72536791 893561850 5470458</internalNodes>
          <leafValues>
            -2.9298588633537292e-001 1.7241780459880829e-001</leafValues></_>
        <_>
          <internalNodes>
            0 -1 69 -2130040272 717939584 -1186535497 201706184
            1560853483 -38055424 -620160899 2047344977</internalNodes>
          <leafValues>
            -3.5539677739143372e-001 1.4117859303951263e-001</leafValues></_>
        <_>
          <internalNodes>
            0 -1 288 1979520307 1408890609 1851390581 -1631098647
            1517550784 -910112054 1520917501 -994313257</internalNodes>
          <leafValues>
            -1.3946110010147095e-001 3.2646244764328003e-001</leafValues></_>
        <_>
          <internalNodes>
            0 -1 96 2003230635 1854856267 -992939050 300376978
            -1686148049 1717691039 -1412238538 1626854354</internalNodes>
          <leafValues>
            -3.0429229140281677e-001 1.6542842984199524e-001</leafValues></_>
        <_>
          <internalNodes>
            0 -1 273 1786748927 -247739598 -68272152 -1301958718
            1534779140 1095749457 -2039454334 -781880329</internalNodes>
          <leafValues>
            -2.1416693925857544e-001 2.4830582737922668e-001</leafValues></_>
        <_>
          <internalNodes>
            0 -1 222 874032189 106926288 1233879005 -330900044
            -1290428934 -1141202862 -1742760200 -1605344596</internalNodes>
          <leafValues>
            -2.7359390258789063e-001 1.9926400482654572e-001</leafValues></_>
        <_>
          <internalNodes>
            0 -1 103 -1145580801 -638219328 -1114425899 -1766883855
            1644869098 -1395337688 1210813435 -909131583</internalNodes>
          <leafValues>
            -1.7350310087203979e-001 3.1799867749214172e-001</leafValues></_>
        <_>
          <internalNodes>
            0 -1 180 473620652 348105428 363332920 547328222 1929712383
            762582022 439026724 960199474</internalNodes>
          <leafValues>
            -3.5091236233711243e-001 1.5004231035709381e-001</leafValues></_>
        <_>
          <internalNodes>
            0 -1 117 1383985820 -503490576 22655502 318638132 1641278431
            1972938852 561338868 1198271096</internalNodes>
          <leafValues>
            -3.6932834982872009e-001 1.5027374029159546e-001</leafValues></_>
        <_>
          <internalNodes>
            0 -1 219 -613053592 -33572118 -1229245791 -138466588
            627819570 -959678107 2133243264 -1355598693</internalNodes>
          <leafValues>
            -2.2405318915843964e-001 2.5705456733703613e-001</leafValues></_>
        <_>
          <internalNodes>
            0 -1 101 134528560 179077432 -1934005069 1276894916 43743304
            -1114412893 596575496 1712092496</internalNodes>
          <leafValues>
            -4.1516825556755066e-001 1.4692534506320953e-001</leafValues></_>
        <_>
          <internalNodes>
            0 -1 245 -2032342796 -739225728 -971709247 -1113529486
            -916206868 -1307934097 345933438 -1861903114</internalNodes>
          <leafValues>
            -2.6266190409660339e-001 2.1595992147922516e-001</leafValues></_>
        <_>
          <internalNodes>
            0 -1 76 -292908352 -494476544 -266766768 -708915814
            -129474308 -1039861622 1883665058 285728730</internalNodes>
          <leafValues>
            -3.0824694037437439e-001 1.8477380275726318e-001</leafValues></_>
        <_>
          <internalNodes>
            0 -1 269 -1368133866 -1300440106 -1862269027 -224503971
            -1182050771 -478955605 1369666106 -1862476553</internalNodes>
          <leafValues>
            -2.7111950516700745e-001 2.0457780361175537e-001</leafValues></_>
        <_>
          <internalNodes>
            0 -1 284 -189423922 -73149224 1490730104 1411906128
            -937183862 -519193875 -1216896376 -583926158</internalNodes>
          <leafValues>
            -2.0363472402095795e-001 2.7783012390136719e-001</leafValues></_>
        <_>
          <internalNodes>
            0 -1 140 -741647617 -102603040 1323103879 283924438
            -572973925 -1908666818 -1806076457 -253867566</internalNodes>
          <leafValues>
            -2.1115231513977051e-001 2.7545392513275146e-001</leafValues></_>
        <_>
          <internalNodes>
            0 -1 12 742138054 -1367349002 -2138845217 -1014511226
            1896970755 663286605 1623291509 1083864934</internalNodes>
          <leafValues>
            -3.7774142622947693e-001 1.5709911286830902e-001</leafValues></_>
        <_>
          <internalNodes>
            0 -1 247 -1415234322 -1059303387 -825257245 -190030642
            1971162716 1290797840 1312621648 2031205108</internalNodes>
          <leafValues>
            -3.2389733195304871e-001 1.6604468226432800e-001</leafValues></_>
        <_>
          <internalNodes>
            0 -1 277 177977400 135891656 605207008 -1895291124
            -1832829712 210544892 -1707429072 -1376958108</internalNodes>
          <leafValues>
            -3.4385669231414795e-001 1.7000462114810944e-001</leafValues></_>
        <_>
          <internalNodes>
            0 -1 152 -1073708804 1444939808 9957758 1213005343
            -1324835200 -681449885 104912011 -48360291</internalNodes>
          <leafValues>
            -2.8689566254615784e-001 2.0639567077159882e-001</leafValues></_></weakClassifiers></_></stages>
  <features>
    <_>
      <rect>
        0 0 1 1</rect></_>
    <_>
      <rect>
        0 0 3 2</rect></_>
    <_>
      <rect>
        0 0 3 3</rect></_>
    <_>
      <rect>
        0 0 4 3</rect></_>
    <_>
      <rect>
        0 0 6 1</rect></_>
    <_>
      <rect>
        0 0 7 5</rect></_>
    <_>
      <rect>
        0 0 8 3</rect></_>
    <_>
      <rect>
        0 0 8 4</rect></_>
    <_>
      <rect>
        0 0 8 6</rect></_>
    <_>
      <rect>
        0 0 8 7</rect></_>
    <_>
      <rect>
        0 0 8 8</rect></_>
    <_>
      <rect>
        0 1 1 1</rect></_>
    <_>
      <rect>
        0 1 2 6</rect></_>
    <_>
      <rect>
        0 1 4 2</rect></_>
    <_>
      <rect>
        0 1 4 6</rect></_>
    <_>
      <rect>
        0 1 4 7</rect></_>
    <_>
      <rect>
        0 1 6 2</rect></_>
    <_>
      <rect>
        0 2 1 1</rect></_>
    <_>
      <rect>
        0 2 2 2</rect></_>
    <_>
      <rect>
        0 2 2 4</rect></_>
    <_>
      <rect>
        0 2 2 7</rect></_>
    <_>
      <rect>
        0 2 3 2</rect></_>
    <_>
      <rect>
        0 3 1 2</rect></_>
    <_>
      <rect>
        0 3 2 4</rect></_>
    <_>
      <rect>
        0 3 5 7</rect></_>
    <_>
      <rect>
        0 4 1 1</rect></_>
    <_>
      <rect>
        0 5 4 6</rect></_>
    <_>
      <rect>
        0 6 1 1</rect></_>
    <_>
      <rect>
        0 7 1 1</rect></_>
    <_>
      <rect>
        0 9 1 2</rect></_>
    <_>
      <rect>
        0 9 3 2</rect></_>
    <_>
      <rect>
        0 9 4 3</rect></_>
    <_>
      <rect>
        0 9 4 5</rect></_>
    <_>
      <rect>
        0 9 6 3</rect></_>
    <_>
      <rect>
        0 9 6 5</rect></_>
    <_>
      <rect>
        0 9 8 5</rect></_>
    <_>
      <rect>
        0 10 2 2</rect></_>
    <_>
      <rect>
        0 10 8 4</rect></_>
    <_>
      <rect>
        0 12 1 1</rect></_>
    <_>
      <rect>
        0 12 2 2</rect></_>
    <_>
      <rect>
        0 12 3 4</rect></_>
    <_>
      <rect>
        0 12 4 4</rect></_>
    <_>
      <rect>
        0 12 8 4</rect></_>
    <_>
      <rect>
        0 14 1 1</rect></_>
    <_>
      <rect>
        0 14 3 2</rect></_>
    <_>
      <rect>
        0 15 1 3</rect></_>
    <_>
      <rect>
        0 15 3 2</rect></_>
    <_>
      <rect>
        0 15 3 3</rect></_>
    <_>
      <rect>
        0 15 6 3</rect></_>
    <_>
      <rect>
        0 15 8 3</rect></_>
    <_>
      <rect>
        0 17 1 2</rect></_>
    <_>
      <rect>
        0 18 1 2</rect></_>
    <_>
      <rect>
        0 18 5 2</rect></_>
    <_>
      <rect>
        0 19 8 1</rect></_>
    <_>
      <rect>
        0 20 6 1</rect></_>
    <_>
      <rect>
        0 21 1 1</rect></_>
    <_>
      <rect>
        0 21 4 1</rect></_>
    <_>
      <rect>
        1 0 1 1</rect></_>
    <_>
      <rect>
        1 0 2 1</rect></_>
    <_>
      <rect>
        1 0 2 2</rect></_>
    <_>
      <rect>
        1 0 3 4</rect></_>
    <_>
      <rect>
        1 0 6 1</rect></_>
    <_>
      <rect>
        1 0 6 2</rect></_>
    <_>
      <rect>
        1 1 1 1</rect></_>
    <_>
      <rect>
        1 2 6 2</rect></_>
    <_>
      <rect>
        1 6 1 1</rect></_>
    <_>
      <rect>
        1 7 2 2</rect></_>
    <_>
      <rect>
        1 15 2 2</rect></_>
    <_>
      <rect>
        1 21 1 1</rect></_>
    <_>
      <rect>
        2 0 2 1</rect></_>
    <_>
      <rect>
        2 0 2 2</rect></_>
    <_>
      <rect>
        2 0 7 8</rect></_>
    <_>
      <rect>
        2 1 1 1</rect></_>
    <_>
      <rect>
        2 1 7 5</rect></_>
    <_>
      <rect>
        2 1 7 6</rect></_>
    <_>
      <rect>
        2 3 3 2</rect></_>
    <_>
      <rect>
        2 4 1 1</rect></_>
    <_>
      <rect>
        2 11 1 2</rect></_>
    <_>
      <rect>
        2 15 1 1</rect></_>
    <_>
      <rect>
        3 0 2 2</rect></_>
    <_>
      <rect>
        3 0 3 2</rect></_>
    <_>
      <rect>
        3 0 7 1</rect></_>
    <_>
      <rect>
        3 0 7 2</rect></_>
    <_>
      <rect>
        3 1 1 1</rect></_>
    <_>
      <rect>
        3 1 2 1</rect></_>
    <_>
      <rect>
        3 2 2 2</rect></_>
    <_>
      <rect>
        3 5 2 5</rect></_>
    <_>
      <rect>
        3 6 1 1</rect></_>
    <_>
      <rect>
        3 6 1 2</rect></_>
    <_>
      <rect>
        3 6 2 6</rect></_>
    <_>
      <rect>
        3 7 1 4</rect></_>
    <_>
      <rect>
        3 7 2 2</rect></_>
    <_>
      <rect>
        3 10 2 3</rect></_>
    <_>
      <rect>
        3 12 1 1</rect></_>
    <_>
      <rect>
        3 12 3 2</rect></_>
    <_>
      <rect>
        3 13 1 2</rect></_>
    <_>
      <rect>
        3 14 2 2</rect></_>
    <_>
      <rect>
        3 17 2 2</rect></_>
    <_>
      <rect>
        3 18 7 2</rect></_>
    <_>
      <rect>
        4 0 1 1</rect></_>
    <_>
      <rect>
        4 0 1 2</rect></_>
    <_>
      <rect>
        4 0 2 1</rect></_>
    <_>
      <rect>
        4 0 6 8</rect></_>
    <_>
      <rect>
        4 2 1 1</rect></_>
    <_>
      <rect>
        4 2 6 2</rect></_>
    <_>
      <rect>
        4 3 2 6</rect></_>
    <_>
      <rect>
        4 3 3 5</rect></_>
    <_>
      <rect>
        4 5 1 1</rect></_>
    <_>
      <rect>
        4 5 2 6</rect></_>
    <_>
      <rect>
        4 7 1 1</rect></_>
    <_>
      <rect>
        4 13 1 1</rect></_>
    <_>
      <rect>
        4 15 1 1</rect></_>
    <_>
      <rect>
        4 18 4 2</rect></_>
    <_>
      <rect>
        5 0 1 1</rect></_>
    <_>
      <rect>
        5 0 3 1</rect></_>
    <_>
      <rect>
        5 0 5 1</rect></_>
    <_>
      <rect>
        5 0 5 2</rect></_>
    <_>
      <rect>
        5 1 5 2</rect></_>
    <_>
      <rect>
        5 1 5 4</rect></_>
    <_>
      <rect>
        5 2 3 3</rect></_>
    <_>
      <rect>
        5 2 5 6</rect></_>
    <_>
      <rect>
        5 4 5 5</rect></_>
    <_>
      <rect>
        5 5 2 2</rect></_>
    <_>
      <rect>
        5 7 1 3</rect></_>
    <_>
      <rect>
        5 12 1 2</rect></_>
    <_>
      <rect>
        5 14 1 1</rect></_>
    <_>
      <rect>
        5 14 1 2</rect></_>
    <_>
      <rect>
        5 15 4 3</rect></_>
    <_>
      <rect>
        5 21 2 1</rect></_>
    <_>
      <rect>
        6 0 1 1</rect></_>
    <_>
      <rect>
        6 0 3 1</rect></_>
    <_>
      <rect>
        6 0 3 2</rect></_>
    <_>
      <rect>
        6 0 4 1</rect></_>
    <_>
      <rect>
        6 0 4 3</rect></_>
    <_>
      <rect>
        6 0 4 5</rect></_>
    <_>
      <rect>
        6 1 1 1</rect></_>
    <_>
      <rect>
        6 1 2 1</rect></_>
    <_>
      <rect>
        6 1 6 1</rect></_>
    <_>
      <rect>
        6 2 2 3</rect></_>
    <_>
      <rect>
        6 4 1 1</rect></_>
    <_>
      <rect>
        6 6 1 1</rect></_>
    <_>
      <rect>
        6 7 1 3</rect></_>
    <_>
      <rect>
        6 8 1 1</rect></_>
    <_>
      <rect>
        6 9 3 3</rect></_>
    <_>
      <rect>
        6 19 4 1</rect></_>
    <_>
      <rect>
        6 21 2 1</rect></_>
    <_>
      <rect>
        7 0 2 1</rect></_>
    <_>
      <rect>
        7 0 4 3</rect></_>
    <_>
      <rect>
        7 1 2 1</rect></_>
    <_>
      <rect>
        7 2 1 1</rect></_>
    <_>
      <rect>
        7 3 1 1</rect></_>
    <_>
      <rect>
        7 3 4 1</rect></_>
    <_>
      <rect>
        7 4 1 1</rect></_>
    <_>
      <rect>
        7 5 1 1</rect></_>
    <_>
      <rect>
        7 5 4 3</rect></_>
    <_>
      <rect>
        7 6 1 1</rect></_>
    <_>
      <rect>
        7 16 1 1</rect></_>
    <_>
      <rect>
        8 0 2 1</rect></_>
    <_>
      <rect>
        8 0 3 2</rect></_>
    <_>
      <rect>
        8 0 3 8</rect></_>
    <_>
      <rect>
        8 0 5 1</rect></_>
    <_>
      <rect>
        8 1 2 1</rect></_>
    <_>
      <rect>
        8 2 1 1</rect></_>
    <_>
      <rect>
        8 2 3 1</rect></_>
    <_>
      <rect>
        8 3 3 1</rect></_>
    <_>
      <rect>
        8 4 3 2</rect></_>
    <_>
      <rect>
        8 6 1 1</rect></_>
    <_>
      <rect>
        8 8 3 2</rect></_>
    <_>
      <rect>
        8 8 5 3</rect></_>
    <_>
      <rect>
        8 9 3 4</rect></_>
    <_>
      <rect>
        8 11 1 2</rect></_>
    <_>
      <rect>
        8 12 5 4</rect></_>
    <_>
      <rect>
        8 15 1 3</rect></_>
    <_>
      <rect>
        8 17 3 2</rect></_>
    <_>
      <rect>
        8 18 2 2</rect></_>
    <_>
      <rect>
        8 21 2 1</rect></_>
    <_>
      <rect>
        8 21 4 1</rect></_>
    <_>
      <rect>
        8 21 5 1</rect></_>
    <_>
      <rect>
        9 0 5 7</rect></_>
    <_>
      <rect>
        9 1 2 3</rect></_>
    <_>
      <rect>
        9 1 3 1</rect></_>
    <_>
      <rect>
        9 1 4 1</rect></_>
    <_>
      <rect>
        9 2 1 1</rect></_>
    <_>
      <rect>
        9 3 2 1</rect></_>
    <_>
      <rect>
        9 4 2 1</rect></_>
    <_>
      <rect>
        9 5 1 1</rect></_>
    <_>
      <rect>
        9 6 1 1</rect></_>
    <_>
      <rect>
        9 8 4 2</rect></_>
    <_>
      <rect>
        9 10 2 3</rect></_>
    <_>
      <rect>
        9 12 5 3</rect></_>
    <_>
      <rect>
        9 21 1 1</rect></_>
    <_>
      <rect>
        9 21 5 1</rect></_>
    <_>
      <rect>
        10 0 2 1</rect></_>
    <_>
      <rect>
        10 1 1 1</rect></_>
    <_>
      <rect>
        10 1 2 2</rect></_>
    <_>
      <rect>
        10 2 2 2</rect></_>
    <_>
      <rect>
        10 4 4 6</rect></_>
    <_>
      <rect>
        10 18 3 2</rect></_>
    <_>
      <rect>
        10 21 2 1</rect></_>
    <_>
      <rect>
        11 0 1 1</rect></_>
    <_>
      <rect>
        11 1 2 4</rect></_>
    <_>
      <rect>
        11 2 1 2</rect></_>
    <_>
